<?xml version="1.0"?>
<opencv_storage>
<opencv_ml_svm>
  <format>3</format>
  <svmType>C_SVC</svmType>
  <kernel>
    <type>POLY</type>
    <degree>2.</degree>
    <gamma>1.0000000000000000e-002</gamma>
    <coef0>0.</coef0></kernel>
  <C>1000.</C>
  <term_criteria><iterations>100</iterations></term_criteria>
  <var_count>768</var_count>
  <class_count>2</class_count>
  <class_labels type_id="opencv-matrix">
    <rows>2</rows>
    <cols>1</cols>
    <dt>i</dt>
    <data>
      0 1</data></class_labels>
  <sv_total>141</sv_total>
  <support_vectors>
    <_>
      234. 232. 231. 235. 230. 234. 229. 231. 232. 234. 237. 234. 242.
      240. 245. 243. 243. 246. 244. 245. 241. 243. 242. 239. 241. 242.
      245. 244. 245. 247. 247. 246. 229. 226. 230. 225. 229. 224. 225.
      225. 225. 229. 226. 231. 234. 239. 238. 236. 238. 238. 239. 237.
      235. 234. 239. 235. 237. 235. 238. 236. 239. 236. 239. 239. 227.
      224. 228. 221. 219. 221. 221. 223. 219. 224. 225. 225. 232. 229.
      231. 232. 230. 228. 233. 228. 228. 230. 233. 230. 228. 231. 233.
      233. 231. 234. 234. 234. 224. 229. 218. 218. 141. 84. 67. 42. 221.
      220. 221. 223. 223. 225. 226. 226. 227. 229. 227. 225. 226. 226.
      226. 224. 228. 227. 224. 223. 228. 229. 228. 232. 220. 217. 215.
      204. 28. 46. 12. 52. 44. 214. 216. 219. 218. 217. 221. 219. 218.
      220. 219. 214. 216. 217. 215. 216. 216. 220. 216. 216. 217. 220.
      224. 220. 133. 134. 131. 30. 31. 34. 22. 47. 32. 184. 187. 187.
      190. 193. 186. 187. 189. 186. 192. 186. 186. 188. 193. 193. 196.
      194. 193. 199. 203. 205. 208. 212. 164. 110. 169. 14. 30. 21. 17.
      28. 37. 163. 163. 158. 156. 150. 148. 158. 152. 170. 174. 180.
      174. 165. 164. 162. 166. 168. 153. 153. 161. 153. 156. 157. 114.
      40. 104. 30. 6. 13. 22. 27. 47. 159. 156. 154. 147. 144. 151. 139.
      147. 140. 146. 140. 147. 154. 146. 136. 129. 138. 139. 133. 141.
      150. 156. 150. 69. 70. 59. 44. 14. 6. 8. 17. 81. 177. 164. 165.
      146. 151. 154. 157. 145. 139. 125. 129. 146. 147. 137. 131. 135.
      140. 151. 130. 139. 129. 140. 138. 74. 64. 106. 79. 24. 16. 15.
      77. 67. 147. 140. 143. 133. 124. 117. 123. 122. 118. 116. 120.
      122. 126. 121. 119. 127. 132. 126. 126. 134. 128. 135. 137. 97.
      59. 60. 91. 95. 37. 78. 92. 85. 151. 142. 146. 144. 136. 156. 122.
      122. 117. 114. 115. 118. 113. 123. 133. 126. 127. 144. 140. 144.
      139. 130. 132. 86. 71. 96. 76. 35. 87. 90. 103. 108. 162. 146.
      152. 165. 157. 166. 108. 113. 147. 129. 148. 129. 139. 134. 142.
      166. 166. 115. 150. 169. 172. 178. 165. 48. 53. 28. 32. 32. 26.
      58. 69. 74. 42. 121. 127. 149. 127. 107. 66. 143. 117. 63. 51. 59.
      148. 133. 71. 112. 82. 39. 57. 92. 120. 165. 181. 39. 55. 39. 55.
      60. 77. 54. 67. 64. 89. 71. 118. 12. 88. 67. 125. 110. 156. 126.
      127. 130. 141. 61. 56. 136. 78. 102. 113. 133. 78. 107. 60. 40.
      64. 55. 40. 30. 59. 22. 33. 29. 41. 23. 70. 123. 83. 105. 67. 99.
      84. 141. 57. 73. 97. 155. 81. 138. 49. 156. 80. 114. 92. 76. 51.
      31. 30. 50. 60. 28. 34. 67. 35. 26. 16. 15. 32. 92. 118. 112. 111.
      123. 102. 104. 99. 111. 102. 84. 89. 108. 66. 155. 78. 103. 92.
      141. 146. 29. 35. 21. 30. 59. 35. 27. 21. 32. 7. 9. 29. 30. 110.
      103. 95. 98. 66. 96. 61. 142. 34. 148. 38. 82. 136. 38. 32. 25.
      150. 70. 40. 43. 33. 9. 24. 21. 37. 26. 52. 18. 2. 4. 6. 67. 85.
      91. 56. 114. 79. 96. 100. 102. 94. 75. 99. 119. 96. 127. 41. 120.
      55. 91. 82. 40. 23. 22. 18. 42. 29. 20. 29. 28. 30. 151. 56. 50.
      49. 190. 50. 56. 122. 91. 55. 130. 102. 104. 31. 105. 103. 163.
      91. 91. 78. 161. 64. 27. 32. 43. 22. 12. 20. 19. 22. 66. 21. 7.
      164. 141. 142. 178. 28. 87. 170. 39. 131. 41. 67. 57. 75. 121. 94.
      39. 151. 94. 104. 103. 73. 32. 34. 17. 24. 10. 27. 45. 20. 55. 12.
      154. 104. 177. 144. 43. 65. 97. 25. 99. 106. 97. 88. 97. 58. 117.
      103. 123. 63. 78. 142. 174. 80. 66. 36. 12. 19. 16. 12. 36. 26.
      16. 58. 38. 105. 181. 159. 69. 65. 52. 68. 55. 57. 112. 62. 130.
      162. 123. 80. 86. 55. 112. 102. 41. 111. 96. 22. 13. 17. 16. 13.
      18. 60. 44. 40. 37. 46. 125. 155. 123. 72. 62. 87. 118. 92. 79.
      44. 49. 101. 161. 63. 110. 129. 70. 42. 116. 86. 69. 25. 28. 12.
      17. 16. 11. 22. 59. 69. 48. 28. 200. 64. 62. 91. 111. 50. 62. 115.
      91. 77. 93. 85. 99. 82. 173. 119. 90. 122. 78. 35.</_>
    <_>
      221. 221. 221. 220. 220. 220. 220. 220. 221. 220. 220. 220. 220.
      220. 220. 221. 221. 221. 220. 221. 221. 221. 221. 221. 221. 221.
      221. 221. 221. 221. 221. 186. 221. 220. 220. 219. 219. 221. 220.
      220. 219. 220. 219. 220. 220. 221. 221. 219. 221. 221. 221. 221.
      221. 221. 221. 221. 221. 221. 221. 221. 221. 221. 221. 221. 218.
      218. 219. 220. 219. 219. 220. 220. 221. 219. 217. 212. 208. 204.
      205. 207. 208. 216. 215. 209. 211. 216. 214. 216. 215. 207. 214.
      214. 220. 210. 217. 213. 198. 201. 200. 204. 196. 202. 190. 178.
      181. 184. 182. 185. 187. 185. 186. 189. 200. 203. 207. 192. 183.
      190. 190. 183. 208. 216. 216. 218. 219. 136. 109. 209. 173. 173.
      179. 186. 182. 185. 185. 185. 185. 183. 177. 181. 189. 165. 193.
      159. 176. 140. 149. 181. 140. 140. 171. 200. 172. 177. 214. 204.
      156. 141. 118. 132. 180. 180. 183. 191. 190. 190. 187. 186. 184.
      188. 187. 148. 141. 132. 151. 142. 172. 119. 133. 148. 139. 130.
      149. 125. 133. 138. 154. 150. 126. 124. 99. 108. 189. 181. 180.
      182. 183. 182. 184. 190. 198. 197. 200. 198. 125. 118. 141. 128.
      101. 141. 127. 157. 144. 118. 112. 130. 140. 144. 148. 108. 122.
      134. 107. 94. 177. 185. 211. 191. 194. 200. 199. 199. 191. 202.
      201. 129. 141. 126. 101. 120. 140. 159. 132. 138. 151. 112. 96.
      97. 111. 98. 106. 108. 95. 81. 95. 96. 187. 194. 194. 197. 192.
      180. 183. 173. 174. 157. 151. 150. 123. 102. 110. 103. 134. 93.
      99. 129. 106. 106. 84. 95. 100. 86. 89. 124. 105. 118. 113. 96.
      146. 150. 153. 147. 156. 168. 161. 154. 189. 135. 138. 143. 112.
      120. 93. 82. 89. 135. 134. 162. 100. 69. 109. 93. 99. 176. 114.
      122. 124. 123. 87. 41. 156. 142. 134. 121. 139. 148. 135. 124.
      140. 143. 109. 136. 112. 67. 63. 95. 111. 142. 151. 163. 153. 155.
      155. 151. 161. 151. 124. 83. 56. 69. 91. 56. 101. 130. 108. 110.
      134. 113. 113. 155. 129. 122. 63. 48. 47. 143. 145. 147. 153. 160.
      156. 154. 146. 183. 163. 138. 141. 130. 78. 53. 132. 171. 183.
      187. 115. 111. 128. 132. 131. 130. 130. 149. 147. 204. 147. 133.
      118. 208. 219. 188. 174. 149. 162. 145. 152. 189. 128. 103. 133.
      144. 126. 65. 164. 172. 175. 144. 65. 190. 171. 153. 130. 108.
      198. 167. 138. 185. 135. 172. 192. 120. 47. 71. 55. 167. 71. 152.
      77. 66. 71. 68. 76. 123. 125. 169. 190. 191. 180. 169. 91. 137.
      110. 75. 48. 45. 65. 40. 39. 71. 133. 155. 161. 157. 89. 64. 143.
      129. 117. 131. 117. 62. 56. 55. 44. 111. 144. 160. 158. 121. 170.
      147. 119. 75. 57. 81. 67. 58. 74. 44. 40. 40. 122. 119. 92. 133.
      125. 51. 110. 87. 128. 96. 85. 59. 68. 67. 56. 134. 121. 138. 139.
      159. 170. 131. 97. 103. 91. 45. 47. 71. 68. 103. 106. 140. 96. 92.
      140. 129. 42. 38. 39. 54. 39. 120. 133. 199. 172. 211. 208. 37.
      117. 122. 135. 215. 115. 131. 39. 40. 38. 38. 162. 64. 94. 86. 99.
      100. 66. 85. 134. 101. 174. 83. 62. 78. 84. 137. 120. 116. 66. 79.
      95. 127. 199. 195. 195. 193. 137. 138. 40. 43. 73. 65. 125. 109.
      129. 38. 37. 38. 71. 78. 153. 57. 62. 52. 185. 98. 116. 115. 105.
      51. 86. 60. 113. 171. 197. 203. 205. 204. 166. 133. 170. 113. 72.
      89. 68. 79. 82. 103. 69. 100. 106. 95. 103. 92. 97. 110. 112. 104.
      108. 110. 124. 99. 108. 101. 120. 175. 194. 205. 201. 193. 193.
      145. 129. 105. 110. 117. 107. 130. 105. 124. 105. 116. 97. 107.
      109. 120. 110. 96. 101. 112. 123. 119. 101. 124. 116. 124. 195.
      190. 201. 203. 199. 197. 190. 190. 95. 110. 124. 127. 120. 131.
      105. 102. 122. 126. 133. 120. 164. 163. 179. 158. 104. 119. 155.
      128. 141. 116. 127. 113. 134. 89. 124. 204. 198. 198. 186. 180.
      142. 130. 122. 126. 137. 101. 146. 131. 167. 145. 177. 177. 186.
      171. 186. 171. 203. 191. 192. 194. 95. 120. 148. 64. 126. 110.
      118. 199. 193. 197. 194. 200. 141. 129. 122. 111. 133. 132. 127.
      194. 171. 158. 162. 189. 185. 174. 175. 171. 179. 154. 145. 171.
      183. 179. 183. 145. 110. 69. 73. 136. 198. 196. 201. 198.</_>
    <_>
      255. 255. 255. 255. 255. 255. 255. 254. 255. 254. 254. 253. 253.
      247. 244. 246. 244. 242. 241. 242. 241. 241. 241. 238. 240. 241.
      239. 241. 238. 239. 239. 239. 251. 251. 251. 253. 251. 254. 254.
      252. 252. 252. 253. 253. 252. 250. 247. 247. 244. 245. 243. 242.
      243. 242. 242. 242. 240. 241. 240. 240. 241. 240. 240. 238. 250.
      247. 247. 248. 246. 248. 246. 244. 245. 244. 246. 247. 245. 248.
      245. 246. 246. 244. 243. 244. 244. 243. 243. 241. 243. 241. 240.
      239. 239. 239. 239. 239. 244. 245. 244. 244. 242. 244. 242. 244.
      244. 244. 241. 243. 240. 242. 244. 242. 246. 244. 246. 244. 241.
      243. 241. 244. 242. 240. 241. 240. 240. 239. 238. 240. 241. 241.
      241. 242. 242. 241. 241. 241. 240. 238. 240. 239. 240. 242. 244.
      244. 244. 244. 245. 244. 243. 244. 244. 243. 244. 242. 244. 242.
      242. 242. 241. 242. 245. 243. 241. 242. 243. 243. 239. 238. 238.
      239. 238. 239. 239. 241. 245. 247. 245. 246. 245. 245. 244. 244.
      244. 242. 243. 244. 242. 243. 243. 244. 245. 245. 91. 75. 81. 72.
      77. 84. 72. 90. 60. 129. 153. 200. 240. 241. 240. 244. 244. 242.
      243. 246. 245. 245. 244. 243. 244. 244. 244. 243. 243. 245. 244.
      244. 65. 73. 102. 86. 53. 56. 56. 57. 66. 112. 135. 142. 141. 191.
      246. 245. 246. 246. 245. 245. 247. 246. 246. 246. 245. 245. 245.
      245. 243. 244. 245. 244. 67. 48. 45. 117. 109. 74. 123. 141. 124.
      128. 140. 146. 159. 167. 248. 248. 248. 247. 248. 247. 245. 247.
      246. 247. 245. 245. 247. 246. 247. 247. 246. 247. 59. 40. 50. 95.
      105. 95. 77. 96. 101. 105. 111. 119. 86. 103. 66. 52. 251. 248.
      249. 248. 248. 247. 246. 245. 247. 249. 248. 248. 248. 248. 248.
      248. 87. 90. 91. 117. 106. 105. 98. 81. 70. 58. 61. 67. 76. 83.
      128. 253. 253. 251. 250. 252. 252. 250. 252. 252. 252. 250. 250.
      251. 250. 248. 249. 248. 122. 68. 93. 55. 80. 87. 77. 75. 63. 56.
      47. 48. 53. 77. 253. 251. 252. 172. 217. 193. 131. 141. 195. 137.
      128. 122. 111. 254. 253. 251. 250. 251. 50. 96. 134. 42. 70. 41.
      74. 72. 78. 62. 248. 248. 247. 240. 253. 220. 223. 228. 237. 159.
      101. 126. 113. 176. 148. 135. 157. 106. 129. 83. 121. 123. 135.
      100. 104. 68. 35. 33. 73. 98. 20. 23. 118. 250. 248. 250. 233.
      235. 251. 248. 149. 164. 158. 96. 63. 86. 83. 228. 168. 75. 95.
      88. 97. 59. 60. 120. 39. 47. 49. 120. 30. 80. 67. 68. 118. 45. 81.
      119. 124. 106. 137. 102. 89. 99. 121. 91. 172. 115. 130. 187. 157.
      162. 235. 144. 139. 66. 57. 35. 60. 47. 36. 54. 46. 18. 24. 130.
      127. 32. 62. 77. 77. 82. 56. 55. 84. 57. 76. 49. 62. 88. 101. 118.
      97. 76. 103. 82. 55. 79. 84. 72. 86. 85. 93. 84. 54. 15. 17. 58.
      113. 111. 124. 94. 66. 61. 74. 72. 37. 130. 52. 62. 49. 41. 124.
      65. 49. 35. 130. 97. 84. 110. 27. 32. 47. 48. 37. 81. 47. 73. 10.
      16. 29. 34. 52. 110. 72. 43. 61. 38. 60. 65. 34. 66. 96. 42. 70.
      41. 98. 89. 42. 61. 89. 84. 65. 45. 109. 41. 27. 74. 46. 40. 64.
      21. 47. 39. 38. 130. 11. 53. 56. 35. 24. 36. 34. 39. 49. 46. 64.
      64. 40. 30. 26. 101. 88. 26. 24. 63. 45. 125. 45. 41. 17. 20. 31.
      81. 38. 31. 31. 57. 85. 108. 21. 75. 68. 30. 63. 66. 50. 59. 59.
      50. 38. 51. 64. 55. 74. 63. 58. 39. 68. 37. 55. 35. 111. 84. 42.
      9. 10. 17. 7. 16. 37. 26. 20. 32. 123. 96. 87. 88. 107. 122. 106.
      95. 101. 100. 95. 111. 116. 108. 32. 56. 28. 29. 21. 21. 29. 34.
      120. 53. 27. 23. 31. 44. 91. 47. 63. 104. 52. 94. 112. 116. 77.
      90. 80. 81. 108. 120. 112. 92. 83. 88. 56. 43. 62. 29. 25. 30. 30.
      80. 87. 27. 36. 14. 13. 11. 41. 18. 50. 46. 45. 68. 8. 143. 8.
      114. 122. 98. 139. 90. 122. 103. 86. 103. 22. 30. 16. 24. 28. 28.
      68. 48. 47. 82. 48. 76. 56. 26. 12. 17. 12. 25. 43. 13. 23. 21.
      66. 49. 79. 97. 99. 102. 111. 82. 118. 90.</_>
    <_>
      139. 93. 126. 126. 137. 121. 151. 117. 185. 141. 121. 141. 110.
      102. 150. 108. 137. 129. 116. 117. 71. 56. 77. 90. 95. 143. 90.
      60. 84. 79. 58. 62. 98. 101. 101. 109. 170. 98. 96. 74. 139. 114.
      71. 80. 106. 101. 139. 92. 73. 125. 113. 86. 78. 155. 100. 111.
      120. 78. 82. 63. 81. 80. 58. 71. 105. 79. 110. 65. 105. 110. 90.
      84. 83. 155. 90. 143. 89. 76. 108. 91. 141. 125. 86. 157. 146. 68.
      89. 108. 96. 111. 74. 86. 95. 88. 50. 190. 54. 95. 81. 51. 73.
      131. 54. 60. 68. 127. 62. 105. 101. 72. 94. 140. 112. 99. 76. 69.
      65. 91. 53. 74. 86. 95. 65. 46. 88. 70. 57. 192. 99. 121. 113.
      112. 124. 132. 104. 116. 125. 102. 98. 81. 111. 93. 110. 84. 62.
      102. 96. 62. 127. 138. 62. 85. 167. 151. 179. 174. 174. 169. 170.
      208. 145. 157. 157. 173. 150. 152. 149. 146. 134. 141. 132. 118.
      128. 135. 104. 136. 114. 80. 58. 90. 91. 68. 72. 85. 142. 98. 187.
      185. 183. 181. 178. 178. 154. 149. 156. 151. 149. 134. 138. 159.
      114. 142. 100. 140. 135. 135. 98. 123. 167. 69. 84. 117. 121. 100.
      97. 110. 74. 58. 128. 186. 188. 183. 182. 183. 151. 144. 151. 151.
      141. 154. 143. 154. 130. 136. 155. 137. 144. 153. 158. 149. 109.
      63. 60. 61. 73. 57. 47. 84. 68. 207. 205. 206. 205. 199. 192. 169.
      134. 134. 149. 140. 150. 144. 120. 144. 147. 125. 145. 150. 129.
      155. 135. 146. 153. 102. 95. 89. 77. 78. 58. 47. 169. 209. 206.
      208. 212. 210. 205. 205. 119. 150. 160. 143. 137. 128. 148. 120.
      159. 132. 143. 138. 140. 133. 131. 95. 39. 42. 41. 41. 39. 38. 42.
      134. 159. 175. 165. 182. 210. 213. 213. 205. 178. 165. 188. 195.
      172. 190. 135. 97. 94. 153. 139. 197. 194. 200. 204. 45. 40. 41.
      39. 39. 37. 84. 135. 163. 176. 187. 169. 149. 160. 177. 71. 101.
      175. 157. 101. 80. 65. 39. 62. 46. 42. 38. 40. 55. 75. 194. 164.
      88. 58. 65. 40. 42. 156. 131. 154. 165. 168. 186. 183. 164. 171.
      168. 95. 95. 61. 72. 66. 94. 100. 141. 160. 185. 193. 198. 198.
      190. 52. 189. 79. 167. 115. 81. 57. 158. 141. 166. 171. 172. 165.
      177. 173. 168. 184. 166. 112. 71. 58. 53. 151. 171. 135. 101. 83.
      172. 188. 172. 109. 143. 158. 61. 119. 75. 171. 172. 164. 135.
      171. 172. 179. 176. 181. 178. 168. 166. 179. 178. 104. 60. 169.
      77. 156. 180. 182. 177. 184. 170. 202. 204. 194. 199. 204. 194.
      180. 187. 172. 183. 184. 185. 183. 159. 170. 178. 181. 181. 190.
      159. 183. 170. 109. 147. 176. 170. 144. 169. 178. 166. 185. 184.
      160. 167. 178. 193. 183. 181. 198. 200. 193. 190. 180. 162. 187.
      190. 174. 189. 184. 173. 182. 183. 182. 185. 168. 152. 201. 190.
      146. 139. 161. 164. 184. 174. 173. 168. 194. 187. 164. 198. 184.
      182. 186. 162. 167. 171. 185. 158. 185. 202. 183. 184. 197. 64.
      111. 109. 133. 91. 203. 203. 149. 149. 135. 133. 114. 112. 87.
      107. 148. 187. 219. 221. 207. 210. 195. 196. 201. 190. 188. 195.
      203. 203. 206. 206. 206. 196. 208. 205. 121. 116. 192. 208. 211.
      203. 154. 171. 161. 159. 152. 154. 161. 207. 213. 213. 211. 203.
      208. 209. 184. 203. 209. 211. 211. 200. 209. 211. 210. 191. 211.
      210. 212. 87. 207. 208. 188. 212. 199. 210. 173. 176. 157. 156.
      172. 57. 214. 205. 203. 213. 220. 179. 201. 207. 208. 210. 194.
      213. 211. 209. 210. 210. 212. 213. 211. 209. 218. 209. 216. 213.
      200. 210. 200. 207. 214. 204. 201. 210. 218. 202. 180. 195. 161.
      175. 189. 191. 179. 207. 209. 208. 210. 209. 209. 211. 214. 213.
      212. 211. 215. 210. 208. 213. 206. 195. 211. 209. 188. 207. 203.
      205. 209. 213. 168. 170. 178. 168. 135. 140. 148. 171. 188. 182.
      212. 212. 211. 212. 213. 211. 181. 187. 204. 208. 208. 206. 213.
      205. 211. 217. 213. 201. 207. 213. 212. 201. 176. 155. 194. 173.
      176. 173. 157. 126. 89. 153. 190. 176. 188. 192. 189. 188. 186.
      164. 204. 202. 209. 208. 209. 209. 199. 209. 211. 214. 203. 207.
      207. 207. 176. 162. 130. 162. 165. 158. 141. 148. 136. 173. 179.
      178. 193. 186. 185. 185. 180. 147.</_>
    <_>
      222. 222. 222. 222. 222. 222. 222. 222. 222. 222. 222. 222. 222.
      222. 222. 222. 222. 222. 222. 222. 222. 222. 222. 193. 222. 176.
      214. 125. 223. 218. 222. 216. 222. 222. 222. 222. 222. 222. 222.
      222. 222. 222. 222. 222. 222. 222. 222. 222. 222. 222. 222. 222.
      222. 222. 222. 172. 163. 193. 201. 193. 178. 180. 222. 222. 222.
      222. 222. 222. 222. 222. 222. 222. 222. 222. 222. 222. 222. 222.
      222. 222. 222. 222. 222. 222. 222. 222. 176. 178. 222. 222. 195.
      121. 121. 222. 168. 185. 222. 222. 222. 222. 222. 222. 222. 222.
      222. 222. 222. 222. 222. 222. 222. 222. 222. 222. 222. 222. 222.
      222. 222. 174. 126. 167. 175. 200. 186. 173. 222. 222. 222. 222.
      222. 222. 222. 222. 222. 222. 222. 222. 222. 222. 222. 222. 222.
      222. 222. 222. 222. 222. 222. 222. 222. 222. 195. 222. 222. 222.
      202. 222. 222. 192. 222. 222. 222. 222. 222. 222. 222. 222. 222.
      222. 222. 222. 222. 222. 222. 222. 222. 222. 222. 222. 222. 222.
      222. 201. 161. 193. 211. 216. 194. 222. 222. 202. 204. 184. 187.
      209. 222. 222. 156. 135. 99. 87. 86. 183. 222. 222. 222. 222. 222.
      222. 222. 222. 213. 185. 222. 222. 208. 217. 175. 218. 222. 221.
      222. 222. 167. 177. 105. 82. 151. 215. 211. 199. 114. 190. 131.
      107. 104. 196. 197. 190. 222. 222. 222. 222. 222. 222. 222. 222.
      222. 146. 142. 189. 222. 192. 215. 222. 84. 109. 141. 220. 216.
      210. 206. 203. 204. 199. 201. 198. 203. 199. 196. 196. 202. 141.
      193. 222. 208. 211. 222. 222. 222. 222. 222. 222. 222. 222. 222.
      222. 97. 75. 203. 200. 210. 212. 210. 203. 204. 206. 204. 205.
      198. 204. 199. 200. 196. 182. 81. 176. 205. 216. 221. 214. 215.
      212. 174. 181. 215. 199. 206. 208. 83. 206. 209. 167. 154. 150.
      127. 109. 111. 118. 148. 146. 103. 101. 106. 157. 165. 195. 169.
      177. 183. 191. 167. 169. 190. 182. 173. 193. 200. 202. 193. 204.
      172. 198. 215. 212. 209. 195. 192. 196. 193. 197. 202. 203. 190.
      189. 196. 199. 201. 204. 170. 125. 152. 172. 145. 151. 170. 175.
      87. 173. 176. 145. 182. 170. 206. 178. 181. 183. 182. 176. 140.
      167. 174. 54. 121. 128. 106. 136. 162. 140. 170. 165. 163. 142.
      144. 128. 93. 128. 92. 48. 121. 151. 147. 183. 175. 171. 206. 204.
      160. 162. 163. 148. 71. 58. 143. 189. 209. 211. 210. 108. 125. 75.
      161. 151. 190. 199. 192. 190. 197. 195. 192. 154. 62. 54. 145.
      195. 178. 182. 39. 196. 180. 127. 123. 129. 161. 168. 180. 173.
      143. 161. 162. 170. 165. 119. 56. 94. 182. 185. 178. 169. 177.
      138. 175. 174. 182. 199. 148. 169. 182. 177. 159. 114. 111. 151.
      142. 99. 86. 59. 72. 51. 54. 74. 48. 123. 181. 108. 174. 178. 187.
      93. 154. 167. 205. 194. 166. 195. 202. 192. 177. 193. 169. 148.
      90. 155. 106. 91. 115. 107. 119. 123. 123. 117. 95. 93. 122. 125.
      136. 210. 129. 176. 65. 110. 74. 74. 80. 155. 210. 150. 100. 159.
      184. 179. 175. 152. 82. 84. 91. 168. 68. 167. 133. 181. 136. 144.
      149. 156. 142. 69. 112. 186. 109. 149. 155. 83. 49. 66. 144. 172.
      189. 182. 161. 157. 197. 202. 210. 144. 77. 100. 128. 70. 118. 63.
      77. 46. 41. 44. 71. 41. 133. 94. 130. 118. 94. 125. 129. 90. 85.
      80. 121. 139. 148. 162. 161. 182. 199. 205. 208. 183. 71. 73. 80.
      87. 180. 112. 100. 138. 82. 91. 87. 101. 159. 67. 123. 150. 117.
      89. 132. 177. 179. 164. 189. 190. 191. 198. 196. 200. 202. 148.
      197. 199. 182. 146. 90. 97. 108. 98. 165. 122. 114. 80. 138. 90.
      74. 104. 71. 133. 130. 189. 133. 139. 192. 181. 190. 169. 122.
      108. 174. 136. 121. 121. 130. 177. 167. 87. 84. 81. 86. 144. 96.
      186. 123. 194. 79. 98. 67. 63. 139. 86. 135. 79. 132. 102. 180.
      184. 132. 193. 147. 203. 97. 202. 127. 178. 148. 171. 85. 91. 69.
      83. 74. 82. 71. 85. 114. 87. 202. 106. 82. 105. 167. 112. 110.
      125. 83. 97. 111. 180. 135. 134. 123. 133. 119. 156. 140. 142.
      122. 169. 109. 136. 61. 101. 90. 112. 128. 129. 80. 75. 102. 112.
      86. 71. 68. 53. 94. 143. 108. 128. 81. 164. 132. 178. 190. 151.
      116. 191. 112. 191. 182. 197.</_>
    <_>
      79. 159. 154. 152. 139. 131. 145. 155. 10. 7. 5. 9. 3. 6. 7. 6. 4.
      26. 37. 49. 71. 64. 61. 52. 8. 33. 52. 45. 41. 28. 30. 28. 147.
      144. 144. 150. 132. 133. 144. 151. 8. 6. 9. 9. 2. 6. 6. 4. 3. 13.
      37. 46. 44. 42. 47. 45. 11. 45. 39. 38. 33. 27. 29. 29. 135. 122.
      128. 130. 117. 130. 125. 13. 6. 5. 8. 8. 3. 4. 3. 8. 3. 5. 12. 17.
      15. 65. 40. 33. 28. 42. 41. 35. 33. 31. 33. 28. 137. 101. 129.
      123. 127. 128. 19. 3. 10. 2. 4. 9. 8. 2. 3. 5. 10. 13. 18. 11. 11.
      33. 46. 32. 36. 36. 37. 36. 33. 32. 31. 40. 93. 99. 109. 118. 123.
      131. 8. 5. 4. 7. 5. 8. 9. 27. 43. 43. 18. 25. 32. 32. 37. 46. 48.
      36. 38. 42. 40. 38. 33. 38. 29. 32. 86. 16. 100. 120. 126. 10. 7.
      3. 8. 5. 9. 12. 12. 40. 37. 37. 20. 25. 31. 44. 39. 44. 45. 44.
      38. 48. 40. 43. 48. 37. 34. 44. 126. 155. 107. 117. 18. 3. 10. 8.
      6. 8. 12. 9. 10. 51. 46. 61. 53. 31. 33. 44. 47. 53. 48. 143. 205.
      206. 204. 198. 193. 50. 38. 38. 136. 103. 107. 121. 9. 7. 9. 10.
      9. 12. 10. 10. 18. 19. 20. 23. 24. 30. 39. 50. 46. 176. 209. 211.
      207. 208. 208. 205. 203. 195. 189. 157. 184. 170. 136. 14. 8. 11.
      9. 9. 5. 11. 13. 13. 16. 21. 21. 169. 51. 105. 42. 57. 213. 212.
      211. 212. 211. 208. 201. 200. 199. 199. 197. 191. 177. 174. 167.
      169. 162. 15. 12. 9. 10. 11. 14. 15. 21. 22. 23. 68. 77. 63. 207.
      209. 207. 210. 208. 209. 207. 209. 207. 204. 203. 200. 198. 191.
      176. 174. 173. 175. 169. 167. 158. 145. 16. 16. 14. 18. 21. 22.
      30. 71. 42. 44. 207. 211. 203. 209. 208. 208. 208. 208. 207. 203.
      200. 201. 198. 194. 176. 177. 181. 171. 173. 170. 163. 166. 23.
      12. 21. 27. 29. 32. 107. 100. 60. 53. 200. 211. 207. 211. 209.
      209. 208. 209. 204. 202. 200. 203. 200. 196. 178. 180. 174. 175.
      168. 171. 160. 165. 148. 24. 30. 37. 40. 47. 101. 26. 48. 38. 208.
      213. 208. 209. 208. 209. 207. 208. 201. 189. 197. 205. 201. 196.
      175. 177. 176. 175. 172. 170. 166. 162. 158. 59. 31. 41. 44. 41.
      102. 64. 57. 43. 211. 207. 211. 212. 208. 210. 206. 194. 182. 182.
      190. 202. 198. 198. 188. 182. 174. 176. 172. 176. 166. 165. 165.
      148. 137. 90. 63. 75. 124. 74. 49. 52. 205. 211. 205. 199. 171.
      160. 158. 168. 178. 179. 188. 198. 194. 193. 178. 181. 176. 170.
      118. 88. 97. 91. 92. 121. 112. 87. 76. 108. 98. 61. 45. 55. 121.
      112. 120. 133. 145. 162. 175. 182. 191. 189. 191. 194. 190. 187.
      149. 143. 137. 150. 146. 132. 130. 124. 119. 97. 61. 61. 71. 74.
      65. 47. 52. 50. 120. 132. 146. 159. 166. 172. 176. 179. 183. 180.
      180. 182. 179. 179. 178. 150. 148. 145. 142. 148. 140. 124. 99.
      64. 55. 49. 54. 63. 55. 37. 44. 75. 111. 128. 138. 151. 159. 166.
      168. 169. 172. 169. 171. 171. 167. 167. 142. 140. 149. 149. 146.
      136. 106. 93. 79. 80. 59. 42. 44. 45. 44. 32. 33. 96. 98. 111.
      125. 142. 150. 158. 157. 161. 158. 161. 160. 162. 163. 162. 140.
      143. 141. 104. 94. 82. 82. 75. 72. 56. 43. 36. 28. 32. 36. 29. 35.
      88. 96. 110. 120. 132. 139. 140. 146. 150. 150. 155. 156. 155.
      158. 158. 140. 125. 97. 88. 94. 86. 73. 77. 59. 37. 32. 24. 25.
      27. 21. 22. 74. 88. 99. 112. 119. 128. 131. 133. 140. 140. 145.
      146. 151. 154. 156. 158. 112. 102. 88. 83. 72. 62. 60. 56. 32. 23.
      19. 17. 22. 17. 16. 64. 97. 97. 97. 19. 17. 76. 122. 131. 136.
      141. 140. 145. 150. 147. 156. 156. 122. 81. 75. 68. 60. 54. 47.
      35. 29. 23. 20. 15. 14. 19. 36. 94. 107. 104. 15. 10. 12. 12. 34.
      22. 30. 114. 138. 149. 148. 152. 156. 161. 101. 75. 74. 65. 52.
      47. 41. 29. 29. 27. 20. 20. 23. 41. 90. 111. 110. 12. 11. 10. 24.
      19. 12. 22. 46. 9. 35. 43. 20. 92. 148. 156.</_>
    <_>
      169. 99. 105. 118. 75. 133. 215. 221. 234. 211. 230. 253. 216.
      249. 228. 208. 246. 232. 204. 226. 236. 233. 192. 195. 173. 207.
      241. 208. 196. 242. 192. 181. 203. 223. 209. 212. 110. 239. 210.
      194. 252. 216. 215. 207. 255. 255. 228. 239. 253. 211. 255. 255.
      238. 254. 192. 188. 255. 254. 243. 209. 148. 181. 75. 254. 185.
      197. 223. 214. 186. 77. 64. 59. 212. 219. 203. 255. 255. 254. 198.
      218. 230. 234. 157. 163. 70. 36. 78. 235. 254. 200. 242. 193. 161.
      25. 45. 69. 180. 216. 212. 218. 199. 197. 186. 86. 181. 190. 229.
      92. 210. 99. 255. 230. 185. 80. 167. 171. 144. 108. 60. 221. 199.
      255. 250. 242. 97. 170. 103. 61. 196. 209. 224. 226. 229. 223.
      145. 230. 173. 138. 75. 180. 240. 252. 253. 251. 186. 44. 209.
      124. 139. 129. 47. 58. 255. 255. 251. 218. 229. 220. 217. 162.
      211. 238. 193. 229. 232. 118. 112. 186. 233. 170. 99. 159. 193.
      166. 165. 163. 111. 56. 45. 79. 66. 80. 51. 136. 239. 136. 255.
      255. 118. 61. 55. 58. 216. 232. 238. 232. 241. 230. 60. 82. 142.
      102. 41. 17. 76. 64. 42. 48. 73. 139. 204. 121. 131. 188. 136.
      147. 246. 86. 149. 134. 52. 32. 121. 229. 150. 156. 150. 207. 195.
      167. 151. 95. 79. 51. 77. 120. 95. 168. 176. 62. 38. 43. 27. 173.
      165. 149. 44. 87. 239. 130. 86. 181. 136. 142. 205. 159. 176. 137.
      211. 175. 170. 220. 161. 175. 194. 171. 179. 195. 226. 254. 30.
      46. 140. 137. 174. 179. 151. 84. 67. 47. 55. 43. 141. 46. 102.
      173. 166. 203. 216. 209. 206. 215. 231. 213. 213. 74. 225. 185.
      234. 219. 249. 13. 16. 9. 175. 114. 137. 138. 115. 30. 74. 93. 73.
      77. 20. 64. 131. 163. 195. 28. 200. 187. 220. 219. 209. 238. 224.
      199. 204. 227. 145. 194. 177. 17. 10. 185. 126. 44. 91. 103. 85.
      80. 67. 98. 115. 73. 86. 87. 205. 210. 240. 209. 197. 218. 77.
      226. 225. 208. 180. 167. 246. 182. 240. 167. 14. 8. 111. 78. 90.
      21. 81. 53. 84. 79. 122. 202. 219. 90. 180. 62. 162. 206. 218.
      188. 223. 202. 194. 200. 198. 146. 172. 167. 137. 138. 38. 172.
      46. 32. 136. 164. 74. 27. 44. 65. 62. 59. 50. 162. 87. 205. 31.
      128. 165. 160. 171. 163. 121. 117. 54. 214. 176. 204. 200. 106.
      194. 235. 184. 226. 162. 36. 254. 38. 91. 16. 29. 77. 52. 104. 55.
      53. 75. 91. 79. 77. 99. 130. 143. 142. 167. 166. 225. 132. 201.
      253. 219. 83. 160. 178. 245. 246. 164. 82. 69. 91. 129. 75. 88.
      122. 72. 177. 218. 221. 227. 232. 87. 90. 97. 103. 122. 141. 169.
      63. 222. 194. 160. 196. 168. 207. 179. 242. 32. 94. 112. 99. 26.
      234. 248. 234. 199. 141. 110. 91. 107. 89. 96. 49. 62. 80. 74. 44.
      67. 123. 213. 169. 111. 128. 226. 197. 248. 233. 127. 237. 174.
      226. 126. 115. 103. 228. 244. 236. 208. 221. 166. 109. 99. 102.
      95. 78. 72. 108. 68. 31. 43. 99. 189. 174. 203. 141. 156. 228.
      218. 234. 224. 165. 243. 181. 84. 145. 144. 118. 19. 213. 23. 227.
      194. 158. 130. 90. 124. 105. 94. 59. 86. 85. 107. 84. 74. 188. 63.
      211. 190. 206. 203. 220. 227. 144. 161. 113. 50. 177. 17. 164. 47.
      25. 29. 133. 161. 117. 102. 54. 131. 130. 104. 86. 95. 106. 123.
      122. 89. 59. 197. 233. 26. 233. 198. 219. 232. 162. 159. 100. 49.
      139. 65. 210. 62. 41. 75. 140. 123. 125. 107. 97. 156. 154. 133.
      83. 127. 116. 95. 130. 84. 204. 135. 106. 173. 242. 234. 235. 239.
      149. 197. 161. 204. 161. 134. 128. 203. 42. 199. 126. 132. 81. 61.
      79. 166. 154. 142. 118. 94. 121. 168. 121. 61. 74. 242. 162. 254.
      231. 225. 224. 199. 224. 177. 161. 165. 86. 41. 64. 36. 112. 183.
      102. 87. 127. 75. 181. 175. 161. 166. 170. 181. 190. 194. 199.
      118. 94. 201. 245. 246. 205. 237. 224. 232. 230. 236. 171. 181.
      180. 158. 156. 113. 187. 104. 75. 170. 84. 201. 203. 197. 194.
      195. 197. 208. 209. 212. 215. 185. 230. 251. 243. 216. 220. 213.
      200. 226. 167. 236. 231. 225. 159. 117. 92. 192. 198. 203. 200.
      207. 211. 211. 207. 206. 208. 210. 215. 213. 216. 222. 223.</_>
    <_>
      27. 13. 9. 13. 89. 148. 83. 71. 87. 79. 81. 177. 172. 78. 195.
      164. 74. 71. 206. 92. 56. 36. 31. 173. 162. 137. 136. 112. 28.
      254. 17. 16. 32. 11. 8. 15. 75. 142. 137. 69. 128. 105. 99. 76.
      80. 77. 213. 199. 96. 170. 206. 62. 46. 48. 40. 173. 153. 126. 24.
      24. 23. 59. 45. 28. 20. 12. 7. 23. 86. 118. 104. 108. 144. 204.
      102. 83. 76. 85. 134. 27. 121. 215. 208. 183. 52. 45. 43. 118.
      150. 140. 139. 131. 31. 51. 34. 28. 18. 17. 13. 45. 60. 98. 81.
      159. 126. 86. 113. 94. 215. 129. 44. 90. 41. 156. 84. 200. 60. 47.
      42. 34. 144. 147. 122. 130. 73. 45. 37. 29. 16. 13. 11. 39. 48.
      184. 182. 253. 182. 158. 168. 32. 14. 102. 168. 195. 84. 201. 84.
      29. 47. 48. 45. 35. 143. 149. 155. 78. 76. 55. 34. 35. 14. 14. 9.
      39. 55. 176. 186. 165. 194. 194. 184. 21. 12. 107. 221. 185. 222.
      166. 17. 50. 25. 187. 186. 170. 143. 152. 149. 132. 67. 56. 32.
      27. 17. 93. 19. 45. 48. 182. 191. 100. 199. 191. 187. 16. 29. 132.
      176. 254. 137. 180. 107. 117. 94. 190. 188. 181. 154. 157. 141.
      144. 74. 61. 33. 28. 23. 102. 96. 48. 181. 190. 192. 76. 198. 191.
      195. 81. 101. 70. 185. 181. 171. 172. 92. 146. 22. 191. 189. 186.
      151. 174. 165. 163. 75. 53. 41. 28. 27. 49. 14. 123. 173. 79. 74.
      82. 66. 57. 41. 74. 29. 20. 182. 187. 183. 77. 202. 73. 195. 193.
      185. 181. 135. 168. 163. 149. 69. 57. 34. 51. 22. 17. 19. 134. 82.
      147. 155. 77. 173. 73. 62. 44. 11. 177. 185. 182. 218. 217. 220.
      163. 131. 178. 68. 185. 132. 159. 157. 147. 66. 83. 78. 61. 43.
      36. 31. 37. 71. 142. 79. 90. 140. 72. 75. 14. 23. 59. 138. 202.
      195. 205. 225. 196. 159. 220. 56. 177. 132. 157. 156. 147. 79. 77.
      70. 54. 44. 49. 57. 48. 84. 59. 157. 133. 66. 63. 67. 41. 8. 127.
      177. 70. 31. 196. 222. 216. 187. 204. 92. 132. 107. 116. 96. 90.
      43. 37. 33. 15. 69. 77. 70. 66. 81. 101. 130. 91. 36. 61. 69. 30.
      34. 122. 142. 143. 78. 208. 228. 211. 188. 229. 120. 124. 106.
      127. 118. 116. 90. 94. 97. 85. 211. 217. 211. 212. 205. 207. 127.
      209. 32. 67. 72. 31. 46. 201. 126. 212. 138. 194. 213. 220. 162.
      214. 210. 211. 215. 212. 214. 215. 217. 209. 216. 212. 206. 148.
      113. 177. 112. 133. 129. 42. 29. 56. 40. 24. 31. 49. 194. 129.
      133. 207. 222. 224. 149. 211. 226. 124. 179. 152. 179. 169. 162.
      170. 172. 174. 210. 211. 213. 207. 204. 205. 120. 55. 22. 42. 57.
      58. 61. 33. 107. 102. 211. 226. 227. 230. 184. 197. 183. 129. 207.
      210. 214. 197. 205. 210. 209. 215. 215. 211. 204. 208. 208. 201.
      71. 49. 54. 27. 39. 27. 9. 97. 99. 114. 154. 210. 225. 225. 219.
      159. 124. 119. 204. 203. 209. 209. 206. 211. 211. 211. 213. 202.
      202. 195. 130. 38. 54. 33. 47. 32. 16. 14. 41. 62. 129. 121. 211.
      210. 229. 233. 216. 213. 102. 113. 120. 126. 202. 203. 201. 202.
      210. 198. 202. 207. 204. 195. 128. 202. 62. 50. 31. 31. 13. 31.
      45. 60. 96. 68. 140. 225. 229. 233. 225. 210. 223. 115. 114. 120.
      209. 208. 199. 198. 177. 153. 198. 209. 198. 201. 140. 27. 131.
      74. 58. 31. 45. 41. 86. 124. 100. 39. 228. 230. 233. 198. 223.
      216. 227. 223. 126. 132. 123. 133. 142. 141. 142. 142. 126. 134.
      129. 132. 116. 48. 88. 93. 55. 66. 39. 98. 99. 121. 130. 31. 211.
      228. 228. 226. 170. 204. 224. 224. 101. 114. 120. 127. 127. 145.
      130. 136. 126. 130. 137. 117. 108. 33. 88. 95. 67. 53. 28. 64. 82.
      138. 66. 22. 207. 217. 227. 227. 204. 212. 212. 227. 109. 109.
      115. 122. 116. 134. 127. 132. 123. 124. 126. 122. 64. 20. 105. 94.
      48. 8. 31. 53. 113. 80. 61. 23. 195. 207. 177. 228. 192. 212. 221.
      227. 217. 125. 147. 121. 120. 121. 116. 118. 122. 118. 123. 125.
      41. 47. 104. 96. 47. 3. 42. 74. 118. 77. 71. 19. 207. 218. 214.
      209. 221. 211. 209. 212. 219. 90. 74. 99. 105. 107. 110. 107.</_>
    <_>
      25. 33. 29. 175. 154. 155. 137. 112. 157. 64. 72. 68. 75. 57. 39.
      43. 78. 160. 171. 181. 191. 159. 195. 64. 66. 165. 151. 137. 159.
      50. 114. 111. 25. 26. 33. 179. 147. 149. 29. 24. 154. 29. 29. 40.
      80. 107. 48. 58. 62. 68. 122. 156. 198. 150. 197. 67. 82. 104.
      159. 169. 147. 124. 60. 105. 31. 28. 40. 176. 152. 158. 20. 26.
      157. 28. 14. 35. 206. 92. 96. 63. 100. 70. 73. 73. 196. 151. 193.
      74. 72. 83. 74. 74. 66. 67. 76. 49. 22. 27. 28. 175. 158. 149. 26.
      34. 163. 34. 25. 38. 143. 91. 153. 127. 114. 169. 81. 77. 190.
      142. 193. 84. 196. 177. 159. 156. 91. 82. 127. 52. 30. 31. 26.
      177. 153. 150. 23. 35. 153. 16. 25. 49. 123. 86. 154. 164. 173.
      168. 161. 175. 196. 127. 199. 103. 176. 151. 184. 116. 178. 171.
      87. 150. 27. 29. 33. 166. 159. 147. 21. 19. 160. 15. 33. 41. 123.
      73. 101. 129. 152. 158. 132. 168. 173. 139. 188. 109. 141. 156.
      116. 147. 143. 132. 147. 55. 28. 37. 32. 165. 157. 150. 29. 47.
      172. 17. 33. 48. 92. 79. 88. 95. 108. 131. 214. 62. 129. 49. 156.
      62. 122. 124. 102. 81. 67. 63. 58. 45. 25. 29. 28. 87. 83. 150.
      32. 40. 163. 18. 43. 44. 129. 96. 185. 177. 172. 176. 197. 187.
      172. 218. 213. 206. 227. 182. 182. 180. 178. 179. 171. 169. 35.
      28. 37. 12. 11. 20. 29. 41. 157. 16. 48. 39. 141. 30. 191. 191.
      26. 30. 235. 208. 199. 222. 130. 184. 182. 190. 194. 190. 188.
      188. 181. 183. 169. 164. 157. 137. 29. 9. 30. 35. 127. 100. 52.
      61. 128. 87. 189. 192. 133. 26. 66. 149. 136. 162. 143. 157. 115.
      185. 191. 194. 192. 183. 189. 181. 154. 166. 160. 168. 81. 16. 28.
      32. 152. 17. 47. 103. 117. 96. 195. 139. 139. 29. 176. 177. 165.
      175. 165. 176. 172. 188. 192. 187. 194. 190. 179. 186. 154. 161.
      134. 112. 102. 18. 29. 24. 137. 114. 52. 157. 90. 55. 79. 131.
      127. 133. 86. 183. 177. 176. 175. 185. 130. 104. 113. 160. 186.
      192. 188. 183. 150. 161. 80. 31. 43. 34. 31. 27. 126. 120. 70.
      162. 86. 66. 159. 123. 114. 44. 175. 180. 172. 180. 179. 183. 165.
      162. 188. 185. 174. 155. 154. 59. 154. 94. 125. 28. 63. 43. 61.
      105. 75. 42. 47. 97. 62. 89. 190. 193. 116. 203. 136. 46. 84. 167.
      177. 178. 138. 122. 134. 117. 119. 109. 111. 72. 106. 51. 66. 35.
      105. 31. 49. 63. 89. 63. 76. 77. 87. 208. 214. 212. 207. 195. 127.
      137. 131. 135. 124. 115. 115. 108. 110. 108. 103. 109. 86. 76.
      203. 77. 63. 46. 63. 59. 53. 50. 88. 81. 68. 93. 120. 212. 218.
      215. 209. 216. 204. 131. 130. 126. 131. 132. 118. 116. 118. 126.
      123. 119. 111. 94. 144. 53. 40. 61. 81. 52. 54. 34. 79. 191. 203.
      200. 215. 210. 212. 219. 216. 201. 212. 131. 130. 134. 127. 127.
      121. 122. 132. 122. 124. 123. 123. 111. 98. 40. 47. 78. 68. 55.
      16. 53. 123. 196. 200. 186. 195. 194. 201. 213. 208. 179. 192.
      200. 196. 199. 195. 189. 120. 76. 90. 90. 79. 98. 118. 117. 90.
      31. 36. 79. 52. 58. 20. 75. 199. 191. 198. 195. 194. 153. 213.
      205. 210. 136. 196. 121. 158. 146. 157. 167. 197. 198. 196. 197.
      201. 205. 202. 199. 56. 23. 39. 79. 55. 52. 23. 58. 151. 193. 196.
      202. 215. 209. 209. 208. 213. 140. 195. 124. 118. 120. 144. 142.
      141. 143. 152. 124. 71. 166. 190. 191. 44. 57. 67. 56. 59. 30. 79.
      45. 100. 183. 192. 186. 202. 183. 195. 200. 205. 198. 191. 119.
      119. 117. 117. 118. 121. 131. 124. 124. 136. 197. 194. 197. 63.
      130. 60. 59. 41. 63. 41. 160. 188. 190. 146. 196. 190. 190. 192.
      99. 193. 203. 128. 112. 126. 120. 120. 116. 122. 123. 133. 133.
      127. 182. 197. 204. 130. 127. 37. 84. 163. 33. 167. 27. 126. 140.
      187. 191. 201. 208. 203. 198. 79. 165. 114. 116. 139. 133. 132.
      137. 142. 148. 123. 137. 130. 193. 192. 197. 76. 38. 76. 96. 15.
      65. 24. 46. 115. 114. 110. 170. 183. 207. 212. 184. 164. 121. 111.
      110. 107. 110. 111. 110. 116. 117. 132. 139. 138. 150. 185. 193.</_>
    <_>
      194. 220. 223. 223. 225. 222. 167. 135. 105. 103. 110. 166. 150.
      226. 179. 241. 235. 168. 203. 225. 194. 184. 184. 181. 193. 199.
      189. 217. 220. 214. 215. 213. 209. 40. 30. 39. 65. 225. 188. 163.
      197. 172. 166. 143. 139. 151. 178. 233. 238. 206. 237. 127. 133.
      147. 184. 141. 128. 89. 84. 77. 107. 205. 153. 143. 211. 84. 72.
      71. 76. 225. 176. 232. 159. 154. 197. 231. 219. 224. 220. 183.
      239. 238. 235. 143. 149. 145. 154. 202. 162. 172. 175. 198. 86.
      208. 214. 216. 212. 138. 47. 52. 71. 208. 214. 234. 191. 156. 190.
      214. 217. 229. 233. 236. 237. 176. 241. 177. 239. 242. 221. 220.
      209. 188. 174. 138. 88. 218. 203. 213. 213. 137. 38. 82. 92. 138.
      167. 196. 217. 178. 246. 227. 233. 223. 170. 179. 233. 175. 237.
      201. 246. 231. 235. 153. 148. 143. 121. 124. 108. 215. 188. 143.
      215. 125. 35. 77. 80. 122. 137. 171. 45. 46. 75. 186. 227. 237.
      172. 233. 189. 229. 244. 201. 203. 178. 114. 159. 153. 153. 134.
      169. 164. 219. 220. 176. 179. 130. 42. 71. 87. 159. 232. 231. 102.
      39. 26. 222. 237. 230. 249. 249. 250. 250. 252. 246. 251. 49. 201.
      206. 232. 234. 232. 231. 230. 220. 210. 192. 90. 96. 36. 75. 83.
      138. 229. 231. 187. 50. 122. 234. 235. 213. 239. 210. 156. 219.
      199. 204. 202. 147. 196. 195. 234. 234. 232. 228. 228. 220. 195.
      205. 69. 133. 193. 75. 184. 154. 226. 163. 131. 130. 55. 201. 215.
      209. 209. 228. 223. 227. 229. 232. 226. 231. 183. 105. 204. 234.
      234. 230. 229. 194. 225. 223. 64. 183. 159. 147. 55. 97. 146. 132.
      169. 16. 44. 73. 138. 219. 228. 223. 225. 232. 251. 246. 245. 247.
      243. 195. 247. 225. 201. 224. 229. 203. 220. 221. 125. 176. 115.
      110. 119. 194. 127. 131. 165. 67. 109. 151. 139. 178. 203. 205.
      248. 244. 239. 239. 250. 249. 249. 242. 251. 246. 170. 193. 203.
      180. 158. 137. 141. 191. 150. 121. 117. 152. 142. 98. 139. 115.
      135. 122. 147. 164. 196. 208. 238. 215. 178. 241. 241. 253. 245.
      234. 253. 252. 205. 205. 210. 205. 205. 202. 244. 234. 239. 237.
      235. 239. 150. 70. 109. 119. 145. 149. 146. 156. 235. 238. 244.
      248. 199. 242. 236. 240. 255. 243. 236. 247. 229. 242. 245. 243.
      245. 248. 242. 234. 235. 236. 232. 234. 138. 177. 148. 143. 89.
      149. 100. 82. 186. 189. 183. 208. 152. 238. 241. 252. 253. 252.
      226. 247. 189. 200. 203. 245. 242. 240. 239. 239. 231. 231. 227.
      205. 51. 77. 71. 19. 77. 47. 19. 60. 205. 192. 197. 192. 217. 239.
      247. 246. 249. 245. 247. 172. 202. 203. 206. 237. 241. 240. 241.
      238. 231. 229. 227. 154. 231. 54. 76. 103. 61. 72. 98. 137. 175.
      181. 187. 197. 202. 241. 246. 254. 254. 253. 246. 244. 199. 205.
      200. 196. 244. 243. 222. 209. 202. 198. 205. 138. 180. 182. 155.
      143. 162. 155. 194. 78. 184. 184. 192. 206. 202. 249. 253. 253.
      236. 240. 249. 248. 143. 199. 204. 196. 200. 213. 199. 196. 191.
      192. 183. 187. 196. 189. 151. 43. 114. 174. 199. 203. 131. 127.
      141. 159. 188. 241. 250. 250. 252. 252. 242. 251. 239. 195. 192.
      199. 205. 200. 200. 194. 177. 181. 191. 219. 180. 143. 101. 19.
      131. 164. 185. 193. 130. 127. 126. 133. 155. 245. 253. 248. 247.
      236. 241. 248. 245. 196. 189. 195. 200. 200. 181. 183. 174. 171.
      207. 205. 197. 177. 73. 206. 201. 146. 195. 184. 90. 149. 148. 71.
      243. 241. 248. 249. 232. 235. 239. 245. 250. 205. 180. 168. 188.
      175. 163. 158. 159. 158. 207. 189. 119. 75. 148. 188. 184. 28.
      170. 188. 163. 139. 148. 87. 239. 223. 240. 237. 231. 235. 240.
      245. 239. 241. 164. 159. 185. 188. 135. 132. 135. 135. 188. 150.
      134. 104. 172. 195. 160. 138. 121. 128. 62. 133. 141. 67. 162.
      234. 243. 243. 243. 231. 244. 245. 229. 239. 156. 161. 165. 177.
      122. 134. 144. 152. 185. 153. 148. 92. 83. 134. 134. 128. 112.
      117. 130. 132. 137. 69. 173. 230. 238. 244. 240. 243. 250. 246.
      240. 240. 165. 184. 156. 168. 153. 148. 165. 169. 203. 172. 170.
      77. 92. 80. 136. 109. 87. 49. 132. 137. 139. 54. 152. 151. 240.
      236. 241. 238. 244. 239. 227. 160. 139. 142. 162. 173.</_>
    <_>
      241. 204. 210. 217. 81. 208. 201. 198. 206. 214. 205. 218. 217.
      219. 221. 224. 227. 151. 153. 156. 149. 112. 115. 114. 118. 118.
      120. 122. 121. 124. 117. 117. 241. 71. 203. 89. 215. 203. 171.
      210. 206. 218. 209. 225. 168. 163. 152. 157. 107. 108. 101. 100.
      107. 112. 109. 111. 115. 116. 72. 103. 117. 118. 120. 118. 243.
      208. 220. 217. 199. 213. 78. 211. 207. 216. 211. 244. 202. 170.
      119. 84. 68. 99. 108. 112. 67. 91. 102. 98. 103. 104. 107. 108.
      109. 113. 107. 110. 243. 237. 204. 172. 115. 214. 210. 208. 203.
      216. 212. 247. 207. 183. 160. 166. 99. 92. 135. 127. 76. 112. 95.
      88. 85. 77. 108. 109. 115. 128. 136. 141. 161. 218. 234. 218. 235.
      224. 223. 197. 208. 214. 212. 244. 207. 162. 201. 167. 166. 143.
      182. 179. 91. 81. 89. 112. 78. 89. 82. 106. 60. 140. 106. 28. 241.
      240. 68. 94. 212. 232. 174. 207. 177. 221. 216. 249. 213. 176. 40.
      29. 51. 53. 38. 70. 129. 135. 182. 178. 166. 182. 176. 189. 139.
      115. 123. 105. 240. 242. 50. 34. 41. 50. 14. 33. 38. 154. 247.
      244. 214. 191. 74. 29. 18. 32. 63. 18. 61. 85. 159. 199. 125. 43.
      21. 26. 64. 189. 201. 182. 241. 238. 32. 31. 70. 77. 56. 86. 68.
      235. 219. 245. 214. 192. 111. 30. 161. 101. 124. 36. 33. 45. 56.
      212. 66. 53. 37. 25. 81. 130. 217. 221. 241. 236. 36. 44. 51. 63.
      111. 113. 43. 43. 50. 41. 34. 144. 139. 41. 252. 242. 83. 209.
      216. 239. 181. 218. 43. 44. 7. 30. 92. 141. 174. 157. 235. 231.
      28. 37. 44. 61. 109. 111. 44. 43. 41. 42. 40. 54. 162. 245. 253.
      252. 251. 252. 237. 205. 220. 216. 43. 45. 13. 74. 85. 204. 184.
      213. 233. 229. 20. 20. 23. 56. 103. 109. 45. 252. 253. 233. 35. 5.
      26. 44. 124. 125. 158. 120. 14. 180. 234. 213. 43. 40. 84. 55. 67.
      94. 215. 218. 230. 227. 31. 21. 25. 53. 96. 102. 65. 67. 189. 193.
      203. 204. 192. 205. 196. 150. 140. 122. 76. 61. 65. 54. 37. 144.
      66. 57. 130. 185. 149. 107. 234. 157. 150. 149. 22. 51. 76. 121.
      51. 44. 198. 198. 187. 187. 198. 187. 208. 139. 139. 133. 162.
      191. 47. 205. 28. 42. 73. 36. 174. 123. 192. 107. 153. 180. 184.
      23. 174. 40. 75. 58. 42. 46. 187. 193. 179. 186. 192. 197. 193.
      141. 140. 133. 176. 185. 116. 148. 118. 118. 119. 104. 117. 141.
      147. 112. 172. 152. 162. 88. 156. 93. 136. 158. 97. 75. 196. 165.
      202. 190. 171. 177. 183. 136. 139. 147. 144. 197. 244. 243. 243.
      236. 235. 229. 220. 156. 111. 96. 202. 68. 127. 138. 158. 157.
      156. 161. 132. 70. 185. 167. 194. 184. 164. 177. 175. 126. 133.
      132. 121. 64. 238. 237. 239. 235. 228. 225. 221. 221. 221. 221.
      201. 150. 157. 158. 74. 83. 10. 36. 112. 30. 177. 177. 166. 183.
      161. 177. 157. 118. 124. 120. 119. 162. 231. 235. 231. 225. 217.
      217. 209. 208. 216. 219. 202. 59. 153. 150. 95. 25. 17. 16. 29.
      96. 174. 171. 172. 183. 183. 174. 159. 126. 113. 120. 114. 167.
      169. 168. 222. 231. 218. 220. 208. 211. 216. 217. 160. 190. 118.
      125. 132. 75. 67. 94. 117. 112. 165. 167. 175. 179. 180. 174. 171.
      124. 111. 116. 113. 165. 161. 159. 163. 156. 154. 167. 155. 147.
      144. 148. 171. 173. 154. 152. 73. 106. 131. 124. 128. 129. 169.
      166. 167. 172. 173. 169. 166. 123. 117. 111. 107. 155. 158. 147.
      137. 148. 139. 133. 128. 138. 134. 139. 161. 139. 132. 154. 144.
      129. 135. 134. 128. 124. 167. 168. 166. 163. 161. 165. 167. 120.
      107. 106. 98. 117. 126. 121. 124. 117. 119. 118. 120. 125. 138.
      130. 135. 139. 144. 144. 131. 154. 133. 129. 129. 128. 170. 165.
      157. 166. 164. 159. 157. 111. 109. 103. 81. 104. 74. 83. 76. 93.
      109. 92. 100. 103. 119. 127. 140. 176. 135. 140. 149. 137. 143.
      169. 158. 156. 167. 163. 159. 167. 164. 163. 155. 115. 106. 99.
      84. 115. 73. 68. 81. 78. 96. 87. 96. 97. 102. 115. 149. 149. 158.
      171. 152. 195. 150. 142. 146. 155. 168. 161. 163. 169. 161. 159.
      161. 131. 107. 97. 84. 71. 98. 88. 90. 117. 118. 113. 110. 129.
      127. 113.</_>
    <_>
      168. 163. 169. 168. 20. 147. 2. 157. 155. 153. 158. 163. 183. 163.
      170. 189. 201. 157. 155. 153. 112. 89. 75. 105. 103. 84. 106. 95.
      58. 12. 23. 43. 44. 162. 169. 2. 161. 133. 170. 167. 159. 155.
      160. 166. 194. 167. 169. 189. 203. 160. 158. 157. 59. 41. 106.
      130. 132. 112. 76. 76. 6. 87. 97. 117. 195. 192. 190. 191. 184.
      184. 179. 175. 160. 149. 161. 174. 187. 169. 171. 189. 205. 158.
      159. 156. 38. 134. 182. 34. 39. 42. 136. 140. 141. 128. 93. 124.
      194. 174. 139. 122. 191. 156. 183. 176. 67. 174. 180. 178. 176.
      177. 24. 39. 47. 18. 14. 34. 26. 136. 160. 17. 13. 15. 15. 13. 6.
      11. 155. 161. 11. 10. 14. 15. 16. 14. 4. 54. 58. 68. 78. 172. 179.
      177. 36. 87. 46. 37. 58. 11. 12. 150. 182. 12. 8. 18. 24. 28. 26.
      22. 154. 157. 19. 14. 28. 19. 31. 22. 21. 37. 30. 24. 36. 196.
      177. 176. 157. 84. 96. 82. 69. 84. 126. 112. 162. 25. 15. 17. 23.
      28. 19. 23. 168. 161. 23. 24. 44. 16. 14. 24. 18. 47. 29. 49. 51.
      193. 240. 234. 237. 150. 27. 176. 178. 189. 224. 243. 223. 189.
      164. 17. 17. 28. 21. 37. 173. 168. 23. 26. 29. 57. 57. 96. 85.
      171. 20. 22. 25. 238. 214. 227. 235. 244. 210. 221. 188. 233. 73.
      226. 185. 162. 162. 143. 23. 29. 21. 27. 169. 168. 21. 23. 30. 56.
      52. 106. 140. 21. 20. 23. 240. 206. 181. 217. 217. 233. 227. 208.
      217. 231. 235. 230. 230. 159. 156. 23. 17. 15. 17. 12. 158. 165.
      24. 24. 28. 51. 186. 171. 77. 140. 177. 99. 66. 54. 56. 55. 172.
      207. 199. 203. 214. 223. 227. 210. 221. 149. 158. 153. 16. 25. 16.
      32. 67. 73. 20. 24. 135. 164. 155. 137. 150. 150. 138. 118. 110.
      107. 90. 66. 66. 60. 13. 20. 31. 29. 55. 114. 116. 131. 154. 166.
      167. 149. 147. 115. 135. 67. 22. 23. 138. 142. 144. 132. 158. 151.
      133. 141. 150. 130. 130. 68. 73. 75. 70. 60. 72. 74. 82. 70. 100.
      129. 146. 160. 167. 168. 151. 125. 88. 86. 17. 20. 149. 135. 142.
      142. 143. 144. 132. 147. 124. 140. 142. 67. 75. 71. 72. 63. 73.
      72. 64. 68. 100. 143. 145. 152. 169. 163. 171. 110. 80. 94. 92.
      16. 154. 136. 142. 125. 128. 138. 139. 138. 136. 130. 113. 66. 70.
      69. 75. 59. 65. 70. 76. 70. 101. 135. 138. 140. 160. 163. 116.
      105. 63. 57. 87. 147. 116. 136. 128. 121. 138. 132. 129. 139. 114.
      135. 120. 74. 66. 71. 74. 67. 70. 74. 70. 71. 100. 133. 129. 131.
      148. 150. 165. 158. 56. 44. 66. 11. 146. 121. 133. 119. 83. 130.
      121. 128. 120. 122. 113. 71. 72. 71. 66. 69. 67. 67. 61. 62. 74.
      121. 118. 141. 151. 142. 158. 159. 138. 147. 58. 56. 121. 129.
      118. 123. 116. 127. 118. 123. 116. 116. 105. 72. 64. 69. 67. 69.
      64. 66. 64. 62. 70. 126. 113. 134. 148. 141. 148. 158. 194. 194.
      27. 13. 114. 99. 123. 115. 114. 120. 110. 97. 108. 114. 104. 65.
      63. 67. 67. 60. 59. 67. 63. 62. 63. 124. 103. 131. 143. 139. 146.
      146. 177. 187. 27. 11. 105. 108. 117. 107. 112. 114. 111. 121.
      119. 117. 97. 55. 63. 61. 55. 63. 61. 61. 61. 60. 63. 104. 100.
      136. 141. 130. 141. 139. 136. 175. 36. 31. 110. 107. 110. 99. 104.
      116. 107. 106. 104. 110. 108. 52. 63. 59. 57. 61. 58. 61. 53. 56.
      57. 65. 91. 131. 137. 118. 139. 138. 138. 101. 46. 62. 102. 108.
      106. 92. 106. 112. 100. 106. 114. 102. 107. 58. 60. 58. 56. 46.
      55. 53. 59. 53. 54. 49. 90. 118. 125. 104. 125. 120. 121. 109. 62.
      77. 101. 109. 103. 96. 92. 107. 97. 108. 90. 109. 94. 55. 55. 57.
      55. 49. 49. 52. 47. 47. 48. 44. 79. 93. 99. 102. 110. 109. 113.
      108. 57. 58. 95. 84. 100. 93. 98. 105. 93. 107. 87. 103. 91. 59.
      52. 53. 53. 46. 50. 50. 52. 46. 42. 33. 97. 112. 134. 131. 50. 59.
      61. 58. 89. 93. 95. 97. 95. 94. 103. 98. 99. 107. 94. 100. 87. 53.
      56. 55. 51. 46. 47. 48. 48. 41. 37. 30. 46. 38. 44. 32. 35. 36.
      33. 39.</_>
    <_>
      47. 46. 48. 52. 56. 57. 54. 58. 67. 70. 155. 222. 94. 226. 222.
      125. 121. 222. 222. 138. 142. 233. 140. 148. 146. 222. 148. 154.
      163. 222. 170. 192. 219. 219. 219. 203. 218. 219. 63. 65. 75. 73.
      159. 222. 85. 81. 79. 87. 93. 89. 105. 106. 115. 123. 222. 217.
      218. 229. 125. 129. 118. 222. 139. 130. 186. 169. 162. 186. 191.
      214. 220. 221. 221. 222. 222. 222. 68. 71. 75. 78. 82. 82. 84. 89.
      86. 82. 104. 133. 207. 100. 96. 105. 90. 85. 99. 104. 196. 191.
      184. 196. 202. 209. 210. 213. 215. 212. 175. 65. 84. 207. 76. 71.
      60. 67. 83. 87. 81. 207. 83. 88. 77. 81. 87. 216. 93. 83. 91. 79.
      168. 185. 181. 186. 188. 184. 201. 188. 175. 160. 164. 163. 89.
      209. 68. 81. 74. 72. 79. 74. 73. 182. 86. 70. 89. 71. 83. 217. 91.
      81. 199. 80. 173. 171. 178. 196. 165. 159. 165. 162. 156. 156.
      149. 57. 73. 206. 68. 173. 88. 74. 75. 122. 66. 191. 122. 187.
      206. 215. 141. 218. 210. 193. 166. 83. 168. 176. 170. 161. 157.
      158. 157. 155. 159. 153. 141. 162. 100. 203. 79. 176. 111. 115.
      163. 210. 85. 193. 67. 187. 105. 118. 190. 92. 95. 187. 83. 87.
      164. 178. 167. 165. 166. 166. 157. 157. 155. 151. 143. 186. 192.
      157. 216. 147. 144. 170. 137. 222. 222. 148. 130. 196. 222. 202.
      200. 137. 82. 192. 95. 132. 188. 175. 186. 185. 183. 175. 182.
      176. 192. 205. 130. 215. 164. 150. 147. 162. 150. 157. 166. 222.
      222. 222. 205. 199. 98. 192. 138. 137. 190. 132. 180. 191. 208.
      204. 205. 65. 127. 142. 76. 107. 69. 136. 174. 210. 184. 170. 96.
      146. 167. 157. 160. 191. 153. 170. 222. 193. 222. 224. 213. 201.
      203. 215. 163. 178. 76. 56. 54. 85. 65. 69. 73. 81. 88. 96. 107.
      150. 222. 222. 125. 191. 146. 115. 174. 223. 138. 222. 176. 222.
      222. 159. 105. 85. 99. 110. 111. 123. 51. 45. 69. 76. 68. 68. 75.
      89. 108. 111. 122. 119. 154. 186. 193. 77. 58. 110. 161. 137. 162.
      218. 222. 222. 222. 139. 80. 73. 95. 116. 76. 133. 46. 85. 79. 82.
      74. 60. 98. 103. 76. 134. 143. 72. 62. 154. 156. 225. 81. 222.
      222. 222. 61. 64. 175. 219. 208. 220. 86. 82. 91. 116. 123. 115.
      73. 97. 81. 80. 79. 95. 85. 89. 63. 77. 131. 131. 142. 140. 177.
      210. 222. 222. 222. 222. 222. 222. 222. 222. 222. 222. 205. 222.
      208. 222. 214. 227. 85. 69. 81. 92. 125. 67. 55. 50. 58. 106. 84.
      90. 95. 74. 144. 181. 218. 222. 222. 222. 162. 221. 151. 222. 199.
      222. 222. 222. 222. 221. 222. 172. 139. 74. 54. 64. 77. 92. 83.
      80. 86. 98. 104. 150. 154. 142. 147. 222. 222. 222. 222. 220. 222.
      185. 197. 222. 107. 229. 69. 75. 69. 75. 100. 92. 81. 88. 55. 57.
      59. 46. 48. 61. 64. 79. 80. 84. 142. 222. 165. 195. 142. 222. 217.
      222. 216. 223. 222. 222. 222. 222. 222. 222. 222. 222. 222. 222.
      143. 114. 136. 69. 73. 89. 97. 74. 80. 89. 102. 131. 64. 42. 59.
      222. 157. 68. 166. 167. 170. 217. 222. 222. 222. 222. 222. 222.
      222. 222. 222. 222. 79. 157. 130. 127. 112. 73. 83. 101. 123. 116.
      108. 133. 63. 46. 145. 72. 50. 177. 146. 131. 79. 101. 167. 219.
      222. 222. 211. 222. 222. 222. 222. 192. 115. 120. 97. 69. 106.
      117. 156. 137. 116. 210. 138. 116. 127. 113. 172. 132. 65. 61. 98.
      122. 104. 76. 157. 159. 222. 222. 222. 222. 220. 221. 222. 222.
      46. 134. 162. 89. 91. 83. 131. 126. 172. 133. 152. 130. 168. 134.
      97. 166. 135. 140. 166. 57. 128. 56. 154. 131. 178. 222. 82. 175.
      222. 123. 179. 200. 99. 171. 140. 140. 139. 96. 75. 115. 78. 125.
      97. 84. 127. 99. 153. 176. 157. 173. 158. 163. 55. 66. 123. 109.
      101. 221. 222. 90. 60. 60. 54. 56. 158. 152. 166. 114. 63. 164.
      56. 165. 88. 73. 178. 144. 141. 164. 162. 156. 110. 162. 98. 86.
      69. 77. 133. 85. 156. 145. 195. 194. 68. 49. 43. 42. 134. 122. 57.
      107. 133. 166. 149. 174. 159. 65. 120. 59. 149. 126. 124. 122. 77.
      139. 89. 91. 53. 56. 62. 67. 83. 80. 86. 94. 108. 47. 52. 43.</_>
    <_>
      15. 10. 11. 12. 13. 11. 13. 14. 14. 15. 14. 14. 12. 10. 14. 12.
      13. 14. 17. 18. 20. 29. 23. 24. 20. 24. 30. 192. 197. 106. 254.
      244. 8. 13. 8. 14. 11. 13. 17. 14. 15. 15. 14. 14. 15. 18. 13. 14.
      13. 14. 19. 19. 24. 28. 30. 24. 25. 36. 132. 249. 254. 254. 255.
      243. 10. 14. 16. 12. 14. 17. 13. 13. 15. 19. 22. 23. 14. 13. 14.
      15. 16. 12. 18. 22. 37. 42. 34. 72. 95. 154. 76. 243. 149. 254.
      216. 205. 11. 11. 13. 14. 13. 15. 18. 23. 19. 23. 25. 26. 32. 21.
      21. 16. 16. 16. 18. 29. 107. 253. 247. 183. 148. 159. 204. 243.
      116. 250. 208. 204. 7. 13. 11. 17. 17. 16. 18. 22. 25. 24. 26. 31.
      23. 40. 43. 43. 68. 19. 27. 127. 251. 254. 245. 186. 143. 92. 45.
      131. 249. 55. 126. 54. 8. 16. 12. 14. 15. 18. 20. 17. 22. 23. 27.
      22. 36. 38. 27. 50. 31. 14. 65. 49. 115. 172. 241. 143. 104. 80.
      84. 75. 40. 190. 181. 190. 16. 10. 17. 18. 10. 20. 15. 17. 23. 27.
      20. 33. 29. 41. 44. 47. 23. 18. 62. 123. 193. 218. 61. 81. 142.
      111. 50. 105. 133. 32. 40. 33. 16. 14. 13. 15. 18. 15. 16. 16. 18.
      20. 22. 21. 36. 39. 49. 50. 16. 16. 70. 38. 43. 34. 26. 88. 119.
      45. 37. 53. 39. 80. 34. 29. 15. 14. 11. 17. 19. 104. 16. 21. 26.
      26. 28. 26. 34. 14. 34. 35. 27. 18. 64. 58. 28. 37. 35. 119. 91.
      34. 84. 74. 132. 71. 145. 154. 9. 17. 18. 15. 39. 99. 29. 16. 17.
      13. 10. 26. 28. 35. 42. 44. 32. 14. 66. 80. 49. 26. 130. 82. 123.
      35. 78. 93. 120. 39. 69. 156. 25. 72. 20. 26. 140. 71. 44. 28. 25.
      45. 19. 90. 28. 22. 41. 31. 30. 107. 100. 35. 22. 27. 29. 89. 120.
      48. 78. 107. 125. 140. 140. 154. 42. 37. 17. 139. 156. 75. 39. 39.
      84. 90. 109. 103. 15. 16. 13. 78. 29. 56. 110. 63. 28. 23. 95. 92.
      81. 111. 63. 41. 114. 150. 147. 163. 40. 43. 132. 170. 147. 149.
      138. 35. 64. 132. 96. 88. 44. 25. 53. 79. 31. 103. 46. 24. 34. 63.
      25. 18. 27. 31. 86. 87. 111. 94. 149. 120. 33. 46. 126. 44. 155.
      168. 73. 25. 88. 132. 84. 35. 28. 15. 31. 64. 27. 41. 42. 48. 31.
      25. 30. 17. 25. 55. 82. 104. 108. 139. 150. 156. 18. 52. 124. 145.
      30. 153. 93. 80. 72. 252. 165. 194. 187. 162. 12. 27. 217. 217.
      220. 221. 21. 22. 32. 22. 64. 23. 120. 77. 58. 101. 148. 150. 41.
      111. 118. 114. 161. 25. 76. 75. 37. 120. 31. 41. 180. 144. 14.
      217. 228. 239. 241. 243. 150. 127. 29. 143. 56. 44. 100. 182. 188.
      98. 95. 79. 33. 131. 92. 181. 132. 41. 38. 21. 17. 74. 42. 31.
      195. 161. 18. 183. 219. 240. 243. 239. 185. 191. 172. 160. 52. 43.
      98. 183. 183. 129. 90. 108. 115. 93. 134. 138. 28. 33. 26. 21. 28.
      24. 27. 18. 185. 138. 16. 145. 210. 237. 238. 232. 162. 172. 164.
      124. 94. 74. 91. 200. 196. 155. 118. 115. 140. 69. 72. 169. 26.
      17. 32. 17. 30. 26. 24. 18. 188. 164. 99. 178. 202. 208. 245. 245.
      149. 178. 175. 100. 87. 52. 105. 172. 168. 89. 131. 127. 46. 173.
      196. 203. 199. 121. 27. 17. 28. 25. 26. 22. 174. 105. 110. 161.
      216. 238. 239. 238. 162. 165. 152. 129. 155. 139. 134. 133. 131.
      94. 127. 138. 133. 124. 186. 194. 162. 177. 36. 12. 23. 41. 24.
      19. 85. 89. 44. 120. 198. 238. 219. 227. 236. 160. 159. 168. 137.
      153. 59. 146. 125. 145. 121. 119. 112. 202. 201. 175. 146. 187.
      213. 13. 20. 32. 24. 34. 27. 133. 71. 152. 208. 237. 243. 242.
      230. 92. 152. 59. 159. 141. 141. 152. 145. 167. 146. 172. 208.
      229. 243. 33. 217. 214. 205. 23. 29. 84. 42. 27. 58. 136. 78. 121.
      187. 227. 235. 237. 221. 221. 157. 159. 157. 162. 167. 145. 173.
      161. 165. 165. 31. 204. 216. 224. 213. 218. 203. 13. 18. 26. 23.
      25. 65. 131. 154. 72. 186. 215. 225. 221. 152. 195. 165. 141. 188.
      187. 145. 181. 101. 76. 83. 120.</_>
    <_>
      8. 13. 14. 9. 16. 6. 14. 6. 9. 7. 12. 5. 6. 12. 24. 31. 20. 13.
      13. 10. 25. 16. 32. 51. 58. 134. 204. 157. 32. 91. 83. 87. 6. 13.
      7. 11. 14. 31. 22. 30. 26. 8. 11. 5. 5. 11. 30. 65. 35. 19. 19.
      14. 90. 181. 245. 254. 255. 254. 212. 163. 135. 108. 79. 100. 9.
      12. 13. 13. 28. 25. 11. 13. 46. 34. 44. 6. 11. 28. 135. 254. 254.
      183. 159. 98. 146. 192. 237. 254. 254. 223. 204. 164. 82. 23. 67.
      101. 13. 11. 17. 16. 24. 15. 40. 29. 22. 44. 51. 5. 7. 73. 141.
      201. 254. 198. 134. 97. 74. 151. 195. 253. 245. 195. 97. 140. 142.
      130. 88. 104. 8. 9. 12. 14. 7. 21. 10. 37. 45. 36. 47. 6. 8. 63.
      85. 227. 193. 192. 100. 74. 47. 137. 226. 247. 103. 219. 135. 148.
      142. 56. 46. 120. 10. 16. 14. 10. 31. 15. 22. 22. 44. 32. 43. 7.
      8. 54. 109. 73. 105. 172. 64. 67. 88. 111. 178. 203. 97. 118. 120.
      103. 118. 141. 134. 128. 7. 11. 8. 10. 10. 17. 17. 23. 22. 34. 33.
      5. 6. 62. 32. 82. 144. 149. 75. 119. 111. 15. 39. 97. 152. 21.
      172. 157. 152. 126. 137. 128. 9. 15. 15. 12. 28. 23. 20. 30. 31.
      22. 37. 7. 7. 62. 43. 62. 24. 118. 51. 97. 90. 64. 104. 129. 125.
      142. 38. 21. 49. 123. 134. 142. 9. 5. 5. 11. 28. 18. 20. 15. 26.
      27. 32. 6. 6. 47. 18. 59. 95. 27. 92. 107. 60. 41. 125. 114. 124.
      138. 112. 99. 103. 162. 152. 151. 8. 6. 6. 25. 23. 18. 24. 29. 13.
      16. 28. 6. 17. 53. 27. 30. 68. 14. 94. 73. 104. 31. 40. 98. 118.
      107. 129. 138. 151. 140. 88. 98. 3. 9. 5. 17. 5. 18. 26. 4. 30.
      24. 24. 17. 8. 43. 24. 64. 25. 51. 11. 85. 81. 17. 98. 128. 126.
      124. 136. 53. 120. 76. 160. 70. 2. 14. 79. 16. 11. 10. 21. 32. 16.
      17. 14. 68. 88. 11. 18. 19. 20. 63. 83. 53. 75. 70. 85. 123. 121.
      130. 136. 98. 147. 155. 159. 127. 37. 79. 94. 79. 79. 73. 6. 9.
      16. 36. 7. 83. 55. 11. 11. 23. 69. 39. 90. 52. 17. 57. 67. 102.
      119. 96. 104. 58. 92. 155. 170. 151. 77. 84. 86. 92. 90. 10. 39.
      12. 13. 26. 7. 86. 69. 16. 14. 56. 49. 51. 76. 52. 53. 23. 78. 64.
      119. 85. 130. 63. 150. 154. 163. 170. 72. 96. 94. 91. 83. 88. 41.
      14. 27. 71. 7. 37. 7. 49. 71. 17. 68. 94. 88. 63. 27. 50. 67. 35.
      105. 87. 131. 53. 53. 156. 167. 151. 81. 91. 99. 103. 91. 99. 6.
      9. 6. 55. 10. 31. 29. 28. 61. 15. 18. 17. 13. 91. 63. 28. 80. 73.
      46. 128. 68. 43. 56. 155. 145. 158. 50. 96. 95. 101. 99. 45. 6.
      33. 16. 47. 9. 13. 36. 95. 47. 16. 13. 25. 43. 49. 60. 59. 87. 91.
      46. 61. 65. 76. 150. 144. 157. 143. 20. 77. 93. 103. 94. 92. 5.
      20. 15. 23. 9. 7. 39. 96. 43. 7. 17. 20. 57. 66. 63. 106. 69. 87.
      82. 70. 55. 81. 55. 68. 100. 145. 46. 68. 98. 111. 114. 91. 13. 4.
      7. 7. 8. 12. 35. 61. 50. 17. 12. 15. 59. 86. 57. 77. 79. 179. 67.
      85. 75. 71. 62. 66. 69. 74. 63. 77. 110. 117. 107. 108. 23. 21. 6.
      10. 15. 13. 21. 74. 42. 112. 75. 71. 48. 78. 77. 38. 181. 166. 83.
      85. 77. 64. 89. 79. 96. 72. 71. 63. 119. 115. 118. 109. 135. 22.
      6. 12. 127. 11. 81. 98. 88. 15. 122. 78. 46. 107. 79. 53. 154.
      134. 89. 126. 47. 50. 71. 85. 77. 83. 43. 71. 94. 107. 102. 159.
      137. 49. 7. 9. 16. 11. 47. 125. 193. 19. 42. 154. 107. 50. 35. 29.
      169. 173. 56. 92. 96. 101. 85. 74. 75. 93. 60. 100. 135. 178. 163.
      164. 130. 60. 14. 14. 131. 70. 46. 91. 104. 126. 155. 147. 92.
      129. 104. 87. 92. 69. 85. 101. 77. 60. 81. 105. 62. 56. 113. 109.
      146. 152. 158. 148. 154. 87. 55. 71. 216. 223. 194. 197. 129. 170.
      151. 147. 77. 58. 62. 38. 77. 91. 96. 83. 98. 57. 76. 103. 106.
      92.</_>
    <_>
      32. 30. 29. 36. 45. 27. 26. 23. 22. 18. 22. 28. 36. 58. 56. 39.
      34. 33. 34. 44. 55. 97. 87. 82. 77. 58. 52. 146. 133. 137. 127.
      44. 31. 33. 37. 50. 42. 67. 46. 34. 26. 18. 21. 26. 41. 88. 89.
      48. 40. 38. 45. 65. 175. 254. 134. 254. 241. 193. 177. 160. 144.
      150. 132. 66. 32. 41. 40. 40. 40. 31. 66. 68. 81. 19. 21. 51. 141.
      241. 254. 254. 204. 180. 178. 194. 234. 252. 254. 253. 242. 192.
      114. 170. 164. 158. 153. 74. 31. 35. 37. 39. 61. 52. 43. 80. 91.
      20. 20. 90. 156. 128. 254. 253. 208. 151. 61. 203. 245. 249. 240.
      213. 125. 128. 56. 166. 158. 170. 151. 60. 36. 27. 35. 52. 36. 64.
      63. 77. 92. 32. 21. 104. 131. 212. 251. 167. 206. 155. 99. 100.
      242. 219. 251. 114. 84. 179. 177. 85. 173. 177. 164. 81. 27. 45.
      44. 40. 58. 56. 63. 68. 71. 58. 19. 45. 135. 194. 209. 209. 186.
      100. 146. 191. 66. 56. 79. 213. 208. 51. 116. 182. 177. 177. 160.
      71. 31. 40. 38. 47. 51. 48. 47. 62. 66. 115. 18. 27. 74. 64. 167.
      72. 132. 170. 152. 172. 207. 48. 193. 53. 118. 189. 51. 40. 184.
      182. 158. 77. 37. 39. 33. 40. 53. 55. 61. 48. 51. 50. 22. 24. 123.
      157. 144. 42. 52. 167. 64. 118. 148. 181. 53. 54. 46. 133. 56. 79.
      187. 194. 155. 78. 21. 30. 39. 46. 52. 40. 55. 53. 60. 43. 16. 20.
      110. 130. 131. 152. 159. 165. 144. 149. 115. 153. 57. 24. 192.
      183. 57. 191. 191. 193. 151. 81. 17. 25. 34. 45. 39. 54. 39. 52.
      54. 63. 38. 20. 101. 58. 109. 33. 146. 131. 97. 116. 153. 152.
      190. 189. 189. 191. 191. 194. 154. 192. 150. 73. 21. 25. 47. 35.
      47. 22. 54. 40. 45. 22. 25. 20. 94. 47. 39. 58. 88. 37. 139. 133.
      106. 148. 178. 182. 185. 33. 39. 208. 200. 175. 138. 77. 129. 164.
      21. 33. 40. 48. 36. 50. 41. 128. 50. 146. 43. 45. 39. 36. 139.
      143. 99. 126. 137. 172. 175. 174. 180. 195. 192. 195. 198. 202.
      137. 74. 147. 148. 141. 141. 24. 36. 33. 44. 23. 146. 136. 151.
      36. 46. 32. 76. 124. 31. 38. 135. 146. 185. 180. 179. 151. 195.
      70. 192. 200. 200. 123. 66. 148. 153. 144. 151. 25. 34. 26. 19.
      19. 151. 138. 156. 52. 73. 101. 127. 89. 68. 119. 73. 141. 174.
      181. 181. 117. 197. 192. 194. 199. 199. 109. 53. 154. 168. 158.
      140. 17. 26. 18. 64. 15. 38. 50. 59. 103. 124. 75. 38. 43. 36. 79.
      132. 138. 175. 150. 184. 184. 53. 96. 192. 196. 197. 105. 67. 160.
      165. 162. 151. 163. 17. 16. 89. 64. 57. 75. 71. 97. 58. 114. 23.
      43. 98. 146. 147. 140. 94. 87. 130. 183. 93. 97. 197. 198. 193.
      97. 54. 163. 170. 170. 161. 73. 25. 38. 65. 29. 42. 165. 153. 93.
      28. 42. 26. 116. 179. 52. 143. 154. 167. 97. 118. 156. 134. 143.
      195. 198. 185. 86. 58. 162. 173. 170. 169. 25. 17. 28. 42. 31. 20.
      53. 171. 74. 36. 43. 36. 76. 140. 141. 171. 116. 128. 147. 81.
      124. 93. 92. 113. 157. 182. 79. 55. 157. 174. 182. 173. 38. 40.
      21. 27. 25. 22. 89. 146. 131. 38. 41. 106. 168. 144. 85. 154. 134.
      24. 180. 160. 121. 148. 130. 94. 129. 121. 72. 64. 162. 163. 168.
      169. 44. 52. 16. 28. 27. 20. 55. 88. 135. 165. 117. 43. 140. 120.
      55. 85. 190. 192. 189. 167. 121. 92. 149. 170. 156. 141. 83. 56.
      172. 168. 172. 170. 166. 49. 17. 22. 172. 24. 124. 160. 151. 45.
      29. 113. 134. 152. 37. 71. 182. 168. 176. 158. 121. 162. 169. 144.
      156. 127. 86. 37. 157. 152. 159. 179. 177. 80. 22. 24. 26. 32.
      114. 158. 63. 147. 27. 176. 42. 171. 133. 106. 186. 182. 171. 183.
      157. 140. 144. 162. 90. 161. 120. 34. 170. 188. 194. 184. 168.
      134. 34. 26. 49. 141. 95. 134. 176. 168. 181. 179. 165. 166. 132.
      124. 103. 156. 179. 179. 178. 124. 186. 138. 165. 157. 178. 80.
      180. 172. 186. 175. 184. 135. 135. 133. 220. 206. 221. 221. 214.
      181. 187. 181. 148. 177. 184. 99. 182. 155. 63. 162. 166. 166.
      161. 148. 138. 136. 181. 164.</_>
    <_>
      72. 68. 70. 72. 72. 73. 64. 68. 70. 69. 67. 76. 72. 71. 73. 73.
      76. 68. 71. 74. 68. 72. 73. 67. 73. 65. 71. 71. 69. 66. 72. 66.
      72. 66. 77. 77. 74. 74. 76. 71. 72. 76. 73. 77. 74. 74. 74. 73.
      71. 77. 71. 71. 75. 74. 79. 74. 77. 77. 74. 78. 78. 71. 71. 75.
      78. 77. 77. 72. 74. 79. 74. 76. 76. 72. 72. 76. 72. 71. 71. 77.
      71. 78. 79. 76. 78. 73. 77. 77. 76. 78. 80. 73. 76. 75. 72. 74.
      85. 83. 78. 84. 79. 77. 80. 79. 74. 72. 78. 86. 78. 77. 76. 77.
      79. 77. 77. 78. 77. 76. 78. 82. 78. 75. 78. 77. 78. 77. 72. 82.
      86. 87. 82. 82. 84. 83. 81. 82. 86. 86. 89. 84. 85. 84. 85. 86.
      87. 85. 90. 87. 86. 82. 81. 80. 79. 82. 80. 75. 79. 77. 74. 77.
      90. 86. 90. 81. 84. 87. 98. 92. 95. 87. 94. 91. 92. 94. 94. 92.
      91. 88. 92. 89. 93. 93. 88. 87. 86. 85. 81. 83. 82. 80. 74. 77.
      97. 92. 96. 100. 101. 105. 106. 109. 108. 115. 113. 116. 109. 109.
      117. 119. 119. 113. 105. 100. 97. 95. 91. 89. 91. 84. 87. 89. 87.
      86. 84. 81. 99. 109. 109. 112. 111. 110. 108. 110. 114. 110. 112.
      114. 112. 115. 110. 114. 108. 110. 106. 108. 105. 103. 102. 93.
      94. 98. 93. 90. 85. 86. 90. 84. 116. 116. 118. 118. 117. 116. 121.
      119. 120. 119. 124. 122. 118. 118. 119. 118. 115. 114. 115. 113.
      110. 111. 112. 104. 106. 100. 96. 98. 91. 92. 92. 90. 72. 83. 94.
      99. 92. 99. 109. 116. 120. 124. 126. 132. 131. 132. 130. 129. 126.
      125. 123. 123. 119. 114. 115. 112. 110. 105. 105. 100. 94. 95. 89.
      90. 81. 76. 80. 76. 76. 73. 76. 69. 74. 78. 90. 93. 78. 85. 84.
      84. 87. 94. 102. 113. 119. 127. 126. 125. 115. 107. 107. 103. 101.
      101. 93. 92. 82. 81. 81. 77. 82. 81. 77. 83. 83. 79. 83. 80. 86.
      77. 82. 80. 80. 81. 80. 78. 83. 84. 79. 74. 72. 88. 88. 101. 110.
      104. 107. 96. 90. 85. 92. 92. 92. 87. 88. 86. 92. 89. 92. 87. 86.
      88. 89. 91. 89. 91. 85. 88. 86. 85. 82. 79. 82. 78. 77. 75. 76.
      71. 64. 66. 106. 107. 100. 100. 98. 98. 99. 104. 98. 101. 103.
      101. 101. 103. 101. 98. 100. 100. 98. 99. 102. 96. 94. 88. 86. 88.
      82. 82. 85. 74. 80. 70. 107. 115. 117. 113. 124. 150. 155. 140.
      132. 128. 133. 128. 129. 127. 128. 127. 127. 126. 121. 122. 118.
      118. 114. 111. 101. 101. 96. 94. 91. 85. 84. 77. 138. 144. 154.
      154. 152. 170. 204. 179. 184. 179. 176. 171. 172. 170. 168. 169.
      174. 180. 171. 169. 168. 171. 166. 186. 155. 133. 128. 118. 108.
      107. 100. 97. 162. 168. 173. 187. 198. 222. 222. 222. 222. 222.
      222. 222. 221. 215. 211. 206. 206. 205. 209. 204. 203. 202. 200.
      197. 186. 216. 167. 156. 147. 141. 126. 123. 178. 181. 194. 207.
      222. 222. 222. 222. 222. 222. 222. 222. 222. 222. 222. 222. 222.
      222. 222. 222. 222. 222. 222. 222. 222. 222. 208. 222. 178. 165.
      156. 138. 173. 178. 191. 205. 221. 222. 222. 222. 222. 222. 222.
      222. 222. 222. 222. 222. 222. 222. 222. 222. 222. 222. 222. 222.
      222. 222. 222. 222. 220. 222. 192. 172. 167. 177. 185. 185. 198.
      222. 194. 201. 222. 203. 224. 209. 210. 210. 211. 222. 222. 222.
      222. 219. 216. 219. 222. 222. 222. 214. 222. 199. 186. 222. 222.
      222. 154. 168. 172. 189. 222. 174. 179. 179. 216. 186. 185. 187.
      222. 192. 190. 191. 208. 204. 222. 222. 222. 222. 209. 210. 209.
      211. 222. 177. 173. 163. 157. 224. 161. 162. 167. 185. 156. 162.
      164. 164. 221. 165. 167. 166. 169. 222. 181. 170. 168. 171. 170.
      222. 222. 222. 222. 215. 169. 166. 222. 160. 160. 149. 222. 222.
      147. 141. 143. 144. 143. 143. 147. 148. 222. 150. 146. 148. 151.
      149. 153. 221. 172. 161. 152. 127. 219. 221. 217. 184. 150. 152.
      222. 222. 222. 216. 214. 192. 132. 125. 125. 131. 127. 128. 130.
      132. 222. 132. 130. 134. 147. 222. 222. 222. 185. 150. 132. 119.
      138. 147. 122. 123. 127. 126. 133. 159. 145. 135. 157. 201.</_>
    <_>
      21. 28. 25. 34. 19. 24. 22. 22. 26. 30. 28. 26. 35. 34. 33. 36.
      38. 34. 32. 33. 36. 36. 25. 23. 30. 31. 32. 31. 35. 38. 39. 45.
      23. 21. 23. 26. 25. 23. 22. 23. 24. 25. 22. 25. 32. 32. 28. 27.
      26. 30. 29. 28. 29. 26. 26. 24. 26. 36. 39. 36. 43. 42. 45. 46.
      21. 16. 22. 23. 23. 22. 25. 24. 24. 29. 21. 32. 25. 27. 30. 30.
      28. 25. 25. 28. 26. 26. 27. 30. 30. 39. 44. 46. 41. 51. 55. 57.
      28. 21. 20. 19. 20. 24. 24. 29. 22. 28. 26. 30. 28. 26. 23. 26.
      33. 30. 28. 33. 31. 31. 29. 30. 39. 38. 50. 49. 45. 55. 66. 64.
      25. 24. 32. 22. 18. 28. 24. 22. 21. 25. 33. 30. 30. 29. 38. 40.
      43. 35. 46. 40. 31. 31. 28. 31. 42. 58. 83. 69. 61. 62. 93. 124.
      27. 29. 29. 24. 19. 29. 28. 27. 26. 30. 30. 29. 36. 37. 37. 46.
      46. 56. 45. 43. 52. 46. 28. 37. 48. 103. 230. 125. 250. 153. 208.
      239. 20. 37. 26. 22. 17. 23. 21. 24. 25. 30. 32. 32. 37. 35. 36.
      44. 49. 45. 62. 57. 71. 91. 32. 63. 53. 203. 253. 254. 253. 233.
      206. 240. 19. 28. 16. 18. 20. 32. 28. 27. 29. 25. 33. 34. 36. 37.
      37. 45. 41. 57. 63. 45. 84. 111. 37. 35. 50. 148. 254. 254. 239.
      197. 185. 241. 28. 37. 27. 25. 27. 37. 31. 30. 23. 31. 24. 35. 32.
      36. 40. 44. 52. 56. 68. 71. 72. 79. 41. 32. 49. 138. 142. 215.
      240. 123. 161. 194. 42. 37. 40. 31. 27. 26. 30. 31. 26. 27. 35.
      28. 35. 35. 41. 46. 54. 51. 58. 57. 70. 83. 40. 32. 48. 52. 216.
      103. 229. 182. 163. 231. 42. 42. 37. 31. 25. 31. 28. 23. 38. 29.
      35. 40. 29. 30. 34. 39. 50. 64. 61. 56. 50. 63. 37. 29. 121. 56.
      194. 106. 167. 195. 160. 225. 46. 51. 41. 34. 29. 18. 31. 29. 42.
      52. 92. 42. 25. 44. 41. 46. 50. 51. 58. 55. 55. 61. 35. 31. 109.
      42. 144. 80. 102. 187. 121. 74. 44. 46. 37. 90. 30. 59. 29. 37.
      37. 156. 38. 33. 33. 144. 47. 33. 52. 56. 51. 31. 46. 57. 45. 33.
      50. 123. 138. 145. 139. 191. 182. 210. 44. 45. 40. 97. 143. 35.
      29. 31. 168. 191. 168. 30. 105. 109. 141. 32. 37. 45. 46. 46. 57.
      49. 90. 30. 82. 92. 111. 153. 143. 118. 173. 185. 43. 51. 67. 54.
      139. 126. 83. 68. 188. 197. 189. 27. 36. 148. 67. 38. 27. 164. 43.
      78. 146. 41. 39. 41. 59. 113. 110. 156. 125. 113. 179. 52. 39. 44.
      73. 182. 183. 86. 88. 68. 171. 199. 200. 33. 49. 109. 60. 27. 45.
      136. 22. 29. 142. 73. 50. 51. 108. 154. 94. 136. 157. 153. 178.
      146. 36. 39. 71. 208. 212. 162. 169. 29. 165. 201. 175. 192. 41.
      25. 33. 24. 188. 53. 58. 117. 105. 39. 50. 41. 58. 65. 194. 135.
      155. 152. 178. 136. 48. 49. 74. 113. 202. 211. 113. 105. 157. 202.
      177. 203. 192. 179. 39. 108. 55. 59. 58. 64. 86. 85. 74. 57. 176.
      127. 188. 65. 156. 119. 187. 155. 42. 42. 181. 211. 97. 24. 147.
      91. 154. 196. 213. 209. 168. 135. 55. 64. 25. 53. 58. 50. 152.
      126. 88. 68. 179. 170. 179. 65. 70. 135. 161. 168. 45. 56. 203.
      115. 84. 73. 188. 28. 203. 220. 227. 210. 24. 137. 59. 131. 170.
      57. 167. 34. 74. 142. 155. 150. 139. 161. 202. 106. 62. 93. 124.
      175. 51. 151. 213. 186. 77. 252. 191. 46. 177. 218. 223. 202. 29.
      169. 69. 178. 96. 209. 162. 39. 104. 58. 116. 146. 166. 177. 155.
      109. 107. 73. 80. 128. 145. 133. 179. 61. 46. 156. 80. 48. 112.
      222. 238. 247. 244. 163. 61. 98. 113. 61. 121. 72. 94. 126. 179.
      127. 160. 140. 75. 95. 79. 87. 94. 75. 161. 156. 237. 80. 62. 90.
      95. 33. 88. 243. 235. 157. 48. 248. 153. 110. 41. 27. 132. 83. 98.
      58. 44. 31. 72. 52. 151. 91. 125. 96. 118. 108. 135. 144. 234. 48.
      58. 39. 46. 29. 144. 250. 125. 50. 241. 244. 191. 122. 216. 233.
      131. 193. 108. 60. 53. 39. 73. 47. 47. 85. 125. 118. 74. 125.</_>
    <_>
      16. 16. 19. 19. 13. 15. 16. 13. 13. 14. 18. 22. 16. 17. 17. 19.
      23. 18. 19. 18. 17. 17. 14. 16. 20. 25. 24. 23. 28. 31. 31. 32.
      14. 15. 13. 11. 14. 19. 17. 16. 17. 19. 23. 16. 22. 22. 21. 20.
      18. 17. 16. 16. 22. 14. 18. 20. 23. 27. 27. 29. 30. 33. 40. 49.
      13. 12. 14. 10. 19. 13. 16. 15. 13. 19. 19. 19. 20. 22. 19. 18.
      19. 21. 17. 20. 16. 17. 16. 24. 23. 33. 30. 31. 39. 44. 42. 53.
      19. 18. 13. 7. 14. 17. 15. 16. 20. 19. 23. 20. 19. 25. 27. 30. 23.
      28. 21. 23. 21. 16. 21. 25. 34. 47. 37. 40. 43. 48. 56. 91. 14.
      13. 13. 11. 15. 18. 16. 15. 19. 21. 22. 24. 23. 24. 30. 29. 41.
      29. 39. 28. 23. 19. 25. 35. 57. 80. 58. 47. 50. 75. 229. 254. 12.
      14. 11. 13. 19. 23. 17. 16. 19. 22. 25. 25. 25. 27. 36. 37. 33.
      53. 49. 57. 73. 23. 27. 180. 253. 253. 254. 230. 191. 206. 157.
      254. 15. 13. 14. 13. 22. 15. 18. 18. 19. 23. 21. 26. 26. 28. 34.
      26. 42. 40. 41. 71. 85. 24. 24. 101. 215. 254. 254. 235. 199. 183.
      212. 254. 29. 25. 23. 17. 23. 17. 20. 23. 23. 22. 24. 22. 20. 27.
      30. 39. 32. 47. 55. 65. 82. 31. 28. 110. 200. 253. 248. 209. 155.
      172. 227. 140. 25. 25. 20. 19. 26. 18. 24. 19. 19. 25. 18. 30. 30.
      35. 39. 33. 41. 47. 53. 61. 71. 26. 27. 105. 203. 216. 226. 175.
      149. 166. 240. 254. 27. 27. 20. 18. 30. 21. 19. 28. 94. 23. 29.
      20. 25. 24. 29. 37. 46. 50. 47. 43. 48. 15. 24. 103. 30. 203. 55.
      53. 188. 101. 135. 98. 34. 24. 23. 22. 20. 18. 17. 31. 47. 18. 29.
      37. 34. 16. 38. 38. 40. 40. 44. 46. 50. 17. 20. 108. 151. 159. 41.
      154. 187. 72. 47. 66. 34. 64. 24. 102. 118. 24. 30. 155. 150. 47.
      20. 25. 134. 35. 27. 36. 37. 39. 15. 38. 44. 19. 20. 90. 124. 133.
      134. 99. 157. 99. 207. 174. 34. 51. 126. 131. 93. 78. 24. 169.
      173. 43. 22. 125. 96. 145. 25. 31. 32. 34. 34. 49. 42. 56. 28. 87.
      78. 112. 114. 133. 157. 94. 203. 152. 29. 58. 165. 61. 68. 116.
      21. 169. 181. 157. 21. 46. 114. 30. 30. 21. 157. 126. 44. 182. 31.
      42. 103. 88. 110. 118. 140. 133. 131. 163. 156. 97. 32. 58. 186.
      192. 147. 44. 122. 180. 184. 183. 22. 38. 87. 61. 28. 55. 89. 102.
      133. 120. 28. 31. 36. 144. 111. 119. 117. 98. 172. 147. 182. 121.
      24. 195. 196. 173. 121. 80. 132. 195. 179. 164. 65. 25. 35. 18.
      19. 45. 87. 41. 121. 127. 23. 37. 27. 115. 155. 59. 71. 131. 125.
      113. 112. 180. 32. 189. 180. 32. 135. 115. 120. 188. 186. 181.
      175. 178. 18. 32. 82. 41. 48. 48. 28. 44. 89. 95. 74. 73. 159.
      157. 129. 104. 186. 117. 100. 171. 140. 191. 173. 52. 180. 49. 85.
      182. 196. 197. 109. 160. 28. 20. 51. 20. 54. 40. 42. 140. 96. 112.
      149. 158. 160. 144. 71. 128. 192. 125. 127. 179. 159. 185. 49. 53.
      163. 35. 24. 207. 218. 214. 172. 122. 36. 22. 99. 152. 59. 136.
      80. 65. 20. 114. 152. 157. 166. 123. 68. 64. 203. 153. 57. 180.
      155. 187. 43. 34. 124. 39. 44. 180. 206. 201. 200. 141. 59. 23.
      146. 75. 191. 157. 93. 91. 34. 67. 138. 165. 174. 119. 75. 47. 74.
      142. 141. 179. 220. 67. 54. 36. 40. 49. 21. 154. 238. 233. 241.
      239. 144. 30. 61. 180. 52. 92. 45. 48. 158. 139. 156. 143. 170.
      140. 76. 85. 201. 61. 155. 182. 215. 69. 46. 40. 40. 22. 22. 240.
      26. 118. 156. 240. 211. 142. 76. 10. 22. 82. 149. 115. 42. 18. 18.
      39. 30. 54. 115. 106. 183. 96. 95. 119. 234. 105. 30. 37. 36. 25.
      25. 247. 252. 107. 242. 249. 200. 141. 158. 207. 220. 78. 160.
      131. 46. 32. 32. 47. 35. 172. 80. 96. 97. 131. 79. 100. 222. 225.
      33. 36. 38. 21. 25. 243. 252. 254. 251. 239. 133. 74. 123. 169.
      212. 128. 37. 114. 46. 210. 101. 39. 29. 193. 119. 124. 133. 109.
      97. 111.</_>
    <_>
      23. 13. 12. 19. 15. 14. 17. 16. 16. 18. 14. 16. 19. 17. 16. 17.
      18. 18. 18. 15. 22. 16. 16. 16. 19. 21. 25. 21. 26. 30. 33. 37.
      14. 22. 12. 12. 21. 16. 14. 16. 17. 18. 26. 22. 19. 17. 18. 17.
      15. 17. 18. 16. 20. 15. 17. 19. 23. 30. 25. 25. 29. 34. 39. 48.
      18. 21. 13. 10. 13. 16. 15. 15. 15. 15. 17. 22. 22. 25. 25. 23.
      20. 23. 18. 18. 18. 16. 15. 19. 21. 37. 30. 35. 36. 43. 44. 53.
      12. 33. 13. 12. 11. 14. 15. 17. 22. 23. 22. 18. 22. 23. 27. 28.
      22. 29. 18. 19. 15. 14. 17. 25. 34. 45. 41. 40. 41. 47. 61. 78.
      12. 15. 11. 12. 17. 22. 20. 17. 20. 24. 22. 25. 25. 29. 29. 29.
      42. 27. 30. 41. 21. 18. 24. 30. 60. 101. 59. 42. 72. 69. 230. 253.
      8. 16. 12. 13. 19. 17. 13. 17. 18. 19. 23. 23. 29. 31. 33. 37. 30.
      54. 41. 60. 74. 19. 27. 49. 252. 254. 254. 245. 192. 158. 239.
      254. 25. 22. 17. 18. 24. 14. 16. 20. 23. 22. 20. 28. 31. 33. 32.
      26. 44. 49. 39. 68. 81. 20. 25. 41. 204. 252. 254. 238. 213. 206.
      239. 254. 25. 20. 19. 12. 26. 16. 22. 13. 23. 21. 22. 22. 24. 23.
      36. 44. 38. 51. 62. 68. 78. 29. 24. 90. 200. 253. 225. 224. 169.
      189. 239. 254. 27. 27. 20. 19. 29. 18. 22. 21. 22. 24. 19. 27. 29.
      35. 35. 40. 43. 46. 53. 66. 69. 28. 26. 102. 180. 211. 211. 204.
      153. 176. 65. 254. 28. 24. 25. 23. 31. 15. 16. 26. 88. 25. 26. 23.
      21. 26. 27. 37. 44. 43. 48. 40. 50. 25. 22. 95. 38. 194. 222. 63.
      187. 101. 231. 239. 32. 31. 19. 19. 32. 22. 20. 160. 36. 27. 26.
      21. 32. 22. 18. 33. 39. 47. 42. 45. 48. 20. 20. 105. 68. 146. 123.
      157. 135. 206. 168. 84. 35. 51. 24. 111. 64. 23. 29. 156. 174. 47.
      24. 109. 128. 35. 26. 33. 44. 33. 22. 43. 48. 29. 19. 86. 125.
      124. 153. 119. 176. 195. 56. 209. 35. 56. 38. 89. 148. 140. 32.
      180. 176. 106. 24. 94. 100. 137. 25. 28. 64. 42. 30. 40. 37. 110.
      32. 85. 77. 131. 161. 143. 152. 179. 179. 41. 35. 62. 194. 32.
      104. 108. 18. 181. 185. 178. 22. 86. 31. 34. 24. 16. 124. 120.
      141. 137. 27. 60. 96. 123. 62. 121. 139. 149. 122. 168. 174. 53.
      25. 189. 157. 196. 161. 115. 130. 177. 180. 179. 61. 21. 18. 19.
      39. 81. 131. 150. 114. 144. 28. 33. 31. 101. 137. 119. 78. 81.
      130. 147. 194. 176. 33. 203. 136. 185. 150. 58. 143. 192. 182.
      142. 191. 160. 33. 23. 63. 50. 154. 41. 109. 111. 18. 39. 33. 134.
      142. 72. 79. 131. 76. 112. 132. 181. 36. 217. 180. 114. 96. 126.
      57. 179. 194. 202. 170. 170. 18. 19. 44. 38. 44. 50. 44. 65. 90.
      87. 43. 88. 161. 158. 133. 81. 180. 110. 62. 159. 130. 216. 202.
      58. 188. 49. 104. 160. 202. 205. 189. 147. 44. 21. 51. 18. 51. 43.
      38. 133. 93. 100. 155. 161. 157. 144. 71. 136. 191. 135. 120. 177.
      192. 168. 57. 57. 164. 30. 37. 194. 216. 212. 171. 139. 35. 17.
      129. 135. 50. 158. 109. 82. 34. 69. 159. 180. 171. 116. 93. 59.
      72. 153. 142. 185. 186. 32. 44. 28. 37. 42. 45. 173. 168. 212.
      178. 18. 76. 25. 47. 59. 198. 131. 57. 86. 141. 23. 147. 163. 175.
      95. 96. 66. 89. 140. 137. 185. 221. 68. 56. 50. 48. 27. 23. 157.
      237. 218. 32. 222. 118. 26. 84. 132. 53. 83. 45. 79. 109. 154.
      159. 142. 175. 133. 111. 130. 206. 66. 136. 185. 211. 132. 39. 48.
      35. 22. 23. 247. 239. 101. 124. 241. 219. 165. 46. 164. 71. 82.
      160. 83. 57. 26. 17. 37. 43. 147. 54. 100. 181. 92. 93. 113. 228.
      232. 28. 37. 31. 20. 27. 246. 253. 253. 252. 249. 187. 122. 35.
      203. 213. 77. 147. 78. 44. 181. 32. 43. 37. 161. 66. 100. 114.
      100. 78. 102. 204. 215. 30. 42. 33. 24. 21. 242. 252. 252. 250.
      241. 185. 83. 129. 209. 95. 124. 190. 92. 51. 201. 196. 40. 33.
      194. 130. 116. 129. 116. 111. 111.</_>
    <_>
      100. 107. 132. 179. 42. 58. 133. 79. 38. 37. 39. 55. 49. 46. 43.
      41. 43. 40. 40. 38. 40. 39. 37. 78. 43. 46. 41. 53. 40. 37. 37.
      37. 83. 90. 145. 168. 41. 42. 70. 84. 38. 37. 39. 43. 47. 46. 46.
      43. 41. 42. 40. 40. 39. 37. 39. 42. 45. 40. 42. 40. 38. 39. 37.
      37. 84. 90. 92. 54. 41. 41. 52. 54. 38. 37. 43. 46. 45. 41. 45.
      41. 39. 39. 39. 38. 37. 40. 39. 60. 129. 154. 97. 57. 39. 39. 38.
      37. 87. 117. 96. 141. 56. 41. 62. 59. 66. 37. 57. 43. 42. 44. 43.
      40. 41. 40. 39. 40. 39. 39. 40. 164. 197. 190. 136. 86. 38. 40.
      40. 37. 80. 98. 68. 108. 123. 82. 70. 56. 59. 37. 52. 42. 44. 41.
      43. 43. 40. 42. 39. 41. 39. 39. 41. 159. 188. 165. 141. 91. 40.
      42. 41. 40. 78. 95. 89. 43. 164. 66. 61. 61. 50. 38. 39. 41. 42.
      40. 39. 41. 36. 40. 40. 41. 43. 39. 40. 183. 207. 200. 118. 88.
      41. 41. 42. 44. 107. 108. 87. 168. 179. 181. 40. 150. 39. 38. 39.
      41. 42. 40. 44. 39. 41. 39. 101. 43. 55. 39. 39. 60. 168. 85. 102.
      95. 126. 42. 45. 44. 86. 88. 54. 182. 180. 190. 85. 73. 38. 78.
      63. 38. 43. 39. 39. 41. 82. 65. 95. 40. 47. 43. 40. 173. 177. 190.
      167. 123. 171. 42. 45. 46. 84. 72. 97. 41. 180. 194. 120. 39. 40.
      49. 66. 38. 39. 39. 39. 59. 115. 100. 41. 56. 61. 44. 38. 196.
      188. 196. 179. 92. 149. 43. 44. 44. 74. 66. 80. 57. 180. 192. 191.
      38. 38. 40. 71. 38. 46. 37. 63. 127. 121. 112. 70. 42. 39. 66. 38.
      194. 177. 183. 167. 79. 39. 43. 42. 43. 84. 69. 58. 41. 185. 175.
      197. 44. 39. 45. 41. 40. 44. 68. 37. 135. 127. 123. 86. 62. 90.
      42. 38. 148. 188. 126. 143. 103. 38. 42. 43. 45. 86. 97. 60. 65.
      47. 198. 183. 82. 51. 39. 48. 43. 62. 40. 38. 138. 138. 114. 84.
      46. 78. 53. 76. 175. 203. 143. 117. 134. 162. 41. 43. 48. 66. 48.
      65. 56. 61. 196. 172. 179. 40. 41. 58. 41. 40. 39. 139. 49. 141.
      123. 97. 62. 45. 131. 66. 170. 206. 176. 149. 170. 159. 42. 43.
      46. 42. 59. 59. 47. 47. 200. 206. 182. 38. 97. 42. 37. 38. 40.
      144. 130. 146. 117. 113. 42. 121. 135. 95. 181. 130. 101. 175.
      184. 169. 177. 43. 48. 69. 69. 58. 46. 59. 198. 201. 50. 38. 55.
      64. 37. 38. 37. 110. 154. 149. 110. 89. 154. 143. 114. 175. 180.
      175. 193. 219. 186. 176. 181. 173. 40. 63. 69. 72. 85. 76. 163.
      157. 73. 38. 74. 49. 38. 69. 38. 113. 157. 154. 130. 67. 83. 48.
      157. 174. 178. 197. 191. 186. 152. 178. 184. 187. 161. 78. 80.
      153. 164. 81. 161. 147. 41. 44. 76. 103. 37. 38. 73. 82. 173. 172.
      150. 57. 43. 48. 66. 185. 170. 192. 186. 151. 186. 190. 186. 172.
      175. 130. 155. 60. 149. 98. 167. 154. 40. 67. 113. 60. 41. 89. 83.
      87. 163. 150. 41. 81. 42. 46. 51. 188. 183. 180. 188. 202. 188.
      177. 206. 184. 162. 135. 115. 53. 136. 45. 163. 167. 41. 42. 50.
      57. 183. 61. 47. 107. 169. 42. 43. 48. 39. 40. 43. 206. 188. 189.
      189. 188. 201. 187. 175. 183. 180. 117. 91. 173. 134. 71. 163.
      154. 59. 110. 187. 187. 98. 167. 55. 78. 173. 44. 43. 53. 40. 40.
      103. 193. 191. 193. 190. 189. 205. 185. 184. 177. 177. 170. 174.
      164. 154. 104. 132. 156. 61. 114. 174. 55. 44. 76. 158. 65. 114.
      42. 43. 38. 40. 42. 92. 191. 197. 193. 190. 189. 211. 181. 198.
      179. 180. 163. 183. 174. 130. 153. 124. 164. 62. 191. 42. 157. 45.
      191. 127. 61. 82. 39. 49. 42. 41. 39. 114. 196. 194. 193. 183.
      176. 188. 188. 180. 190. 182. 156. 169. 126. 140. 135. 134. 154.
      62. 197. 193. 180. 202. 194. 104. 73. 88. 40. 41. 41. 40. 39. 93.
      201. 197. 189. 159. 203. 179. 184. 189. 180. 180. 101. 75. 134.
      123. 131. 156. 161. 85. 87. 206. 207. 200. 181. 138. 86. 118. 41.
      42. 40. 38. 40. 70. 194. 194. 190. 193. 189. 183. 181. 181. 184.
      155.</_>
    <_>
      89. 103. 173. 181. 183. 62. 41. 75. 38. 37. 43. 49. 46. 45. 43.
      40. 41. 40. 39. 38. 38. 37. 38. 46. 41. 37. 39. 38. 38. 36. 37.
      37. 86. 98. 82. 200. 44. 42. 40. 79. 38. 37. 39. 42. 45. 46. 41.
      41. 40. 41. 40. 39. 39. 37. 54. 45. 44. 76. 44. 42. 40. 39. 37.
      37. 73. 79. 111. 80. 41. 42. 48. 45. 38. 36. 41. 44. 42. 40. 42.
      41. 39. 39. 38. 38. 38. 39. 41. 44. 42. 43. 38. 37. 38. 39. 37.
      37. 76. 125. 100. 148. 53. 56. 41. 51. 58. 36. 65. 42. 41. 42. 41.
      40. 40. 40. 40. 41. 39. 41. 50. 151. 160. 118. 55. 40. 38. 40. 40.
      37. 72. 116. 68. 95. 69. 52. 39. 70. 54. 37. 42. 41. 42. 39. 41.
      40. 40. 41. 38. 39. 38. 38. 152. 187. 185. 132. 79. 37. 38. 40.
      44. 42. 76. 103. 71. 65. 147. 113. 53. 57. 51. 37. 37. 40. 41. 40.
      38. 41. 40. 40. 39. 50. 37. 38. 150. 167. 159. 138. 49. 40. 38.
      40. 41. 41. 58. 119. 85. 104. 164. 176. 57. 41. 43. 38. 38. 39.
      39. 39. 42. 39. 39. 39. 101. 42. 45. 39. 127. 196. 119. 73. 91.
      39. 38. 41. 42. 43. 64. 66. 60. 63. 170. 171. 79. 54. 143. 40. 41.
      89. 41. 38. 39. 41. 43. 37. 86. 39. 42. 45. 74. 182. 208. 97. 100.
      181. 38. 40. 44. 44. 94. 87. 38. 84. 179. 166. 151. 45. 48. 46.
      69. 38. 38. 38. 39. 44. 66. 74. 39. 42. 40. 42. 182. 159. 182.
      174. 103. 177. 38. 41. 42. 41. 72. 77. 86. 76. 178. 147. 179. 40.
      71. 39. 44. 87. 71. 55. 52. 91. 113. 102. 45. 40. 45. 65. 187.
      170. 201. 178. 91. 116. 38. 41. 43. 41. 89. 80. 67. 47. 180. 193.
      183. 159. 45. 40. 45. 55. 53. 118. 129. 125. 132. 79. 59. 39. 39.
      53. 170. 175. 172. 153. 78. 42. 38. 40. 44. 43. 79. 94. 56. 38.
      183. 181. 168. 50. 53. 40. 41. 39. 71. 39. 91. 111. 123. 104. 75.
      65. 74. 47. 174. 217. 161. 115. 108. 44. 38. 42. 42. 43. 73. 43.
      63. 39. 187. 187. 178. 39. 42. 41. 45. 37. 39. 39. 38. 127. 137.
      98. 76. 43. 76. 89. 63. 159. 163. 76. 148. 135. 51. 41. 42. 44.
      44. 48. 67. 44. 188. 199. 190. 93. 39. 83. 40. 37. 38. 38. 124.
      109. 141. 111. 96. 40. 158. 142. 87. 177. 115. 131. 168. 150. 64.
      41. 44. 47. 46. 60. 72. 54. 42. 200. 203. 72. 38. 45. 42. 37. 38.
      37. 116. 147. 143. 103. 91. 128. 152. 136. 181. 36. 141. 173. 174.
      159. 168. 203. 43. 44. 59. 59. 59. 86. 51. 199. 110. 38. 38. 44.
      56. 37. 37. 38. 104. 100. 148. 99. 53. 150. 110. 157. 166. 147.
      163. 165. 177. 164. 158. 158. 131. 47. 58. 78. 160. 168. 73. 193.
      145. 38. 41. 45. 90. 38. 38. 39. 90. 169. 175. 148. 63. 42. 47.
      55. 159. 151. 167. 172. 136. 170. 168. 170. 147. 141. 56. 109.
      131. 126. 126. 115. 164. 40. 64. 110. 55. 46. 69. 94. 80. 127.
      152. 40. 99. 43. 43. 182. 170. 181. 158. 130. 168. 179. 175. 171.
      151. 116. 138. 42. 42. 140. 47. 69. 176. 42. 49. 56. 64. 46. 56.
      65. 111. 164. 43. 45. 149. 39. 39. 186. 176. 190. 178. 176. 182.
      204. 177. 172. 169. 127. 143. 40. 83. 144. 41. 90. 156. 51. 107.
      109. 188. 198. 186. 64. 81. 162. 42. 41. 80. 40. 41. 186. 188.
      184. 185. 183. 179. 175. 178. 176. 174. 171. 160. 177. 171. 124.
      42. 105. 156. 56. 99. 169. 43. 72. 65. 172. 61. 108. 42. 41. 56.
      39. 41. 190. 193. 187. 185. 183. 171. 174. 202. 210. 168. 172.
      148. 168. 144. 147. 106. 108. 171. 86. 89. 38. 58. 44. 57. 155.
      57. 77. 39. 51. 41. 41. 39. 191. 191. 210. 187. 185. 189. 181.
      178. 175. 207. 166. 154. 173. 166. 60. 137. 120. 162. 78. 190.
      180. 42. 191. 191. 120. 64. 179. 39. 41. 40. 39. 38. 219. 192.
      191. 180. 164. 183. 181. 180. 182. 183. 168. 94. 138. 120. 161.
      123. 130. 162. 57. 103. 205. 211. 203. 183. 124. 73. 121. 41. 40.
      40. 39. 40. 196. 196. 193. 178. 193. 187. 187. 173. 176. 170. 169.</_>
    <_>
      18. 10. 18. 18. 28. 44. 43. 81. 56. 152. 177. 139. 134. 160. 185.
      254. 236. 254. 255. 107. 254. 238. 212. 198. 175. 169. 164. 158.
      119. 44. 61. 25. 30. 31. 46. 21. 23. 22. 199. 255. 234. 254. 215.
      192. 140. 157. 176. 171. 119. 253. 254. 255. 252. 227. 192. 183.
      188. 162. 160. 140. 121. 138. 106. 37. 35. 29. 49. 13. 16. 39. 54.
      254. 228. 241. 183. 210. 226. 178. 160. 130. 160. 254. 254. 255.
      129. 227. 158. 176. 186. 168. 160. 150. 140. 19. 98. 122. 29. 33.
      23. 17. 20. 24. 33. 118. 215. 231. 182. 159. 122. 151. 152. 214.
      236. 113. 131. 255. 119. 125. 205. 110. 125. 175. 118. 155. 137.
      130. 128. 122. 32. 34. 41. 13. 19. 26. 25. 60. 53. 182. 181. 117.
      128. 74. 164. 208. 212. 110. 252. 254. 35. 226. 51. 111. 177. 169.
      55. 153. 41. 65. 17. 101. 26. 35. 34. 12. 18. 20. 20. 80. 118.
      181. 49. 117. 72. 131. 47. 203. 181. 52. 144. 72. 225. 220. 182.
      186. 175. 53. 22. 148. 13. 22. 110. 99. 30. 30. 35. 12. 22. 21.
      25. 74. 18. 167. 176. 132. 64. 41. 38. 198. 222. 241. 41. 100.
      209. 215. 195. 74. 169. 69. 33. 147. 136. 128. 122. 79. 28. 20.
      26. 23. 20. 19. 23. 63. 111. 152. 163. 29. 77. 148. 175. 197. 134.
      222. 162. 192. 201. 206. 29. 170. 47. 35. 104. 26. 130. 130. 108.
      98. 21. 25. 21. 39. 16. 16. 16. 55. 44. 28. 11. 48. 130. 113. 37.
      29. 100. 199. 123. 23. 191. 190. 31. 180. 168. 20. 20. 32. 122.
      117. 119. 100. 20. 13. 30. 37. 15. 11. 20. 53. 56. 65. 118. 91.
      118. 140. 165. 69. 17. 183. 60. 20. 40. 29. 100. 179. 154. 29. 30.
      21. 142. 128. 116. 33. 17. 20. 25. 41. 16. 13. 15. 59. 73. 80.
      125. 90. 31. 145. 153. 80. 180. 180. 154. 81. 118. 23. 177. 104.
      170. 113. 29. 14. 135. 110. 106. 25. 15. 17. 19. 20. 10. 13. 9.
      50. 64. 77. 42. 43. 104. 10. 150. 101. 18. 23. 136. 161. 165. 81.
      90. 24. 19. 76. 13. 13. 126. 113. 94. 102. 12. 16. 16. 11. 11. 13.
      12. 28. 57. 64. 96. 62. 110. 59. 25. 20. 21. 20. 132. 159. 22.
      123. 126. 14. 148. 14. 28. 12. 124. 100. 103. 107. 12. 13. 16. 12.
      10. 8. 9. 10. 58. 59. 83. 26. 104. 15. 136. 65. 140. 140. 15. 16.
      15. 16. 43. 34. 120. 26. 23. 131. 113. 115. 14. 14. 15. 13. 15.
      12. 7. 11. 13. 17. 45. 51. 70. 33. 92. 97. 134. 29. 15. 8. 22. 13.
      36. 15. 141. 18. 127. 26. 50. 120. 114. 114. 112. 12. 12. 14. 16.
      11. 10. 13. 18. 18. 40. 45. 37. 62. 84. 31. 14. 70. 13. 16. 55.
      111. 52. 20. 13. 19. 27. 16. 135. 126. 118. 23. 25. 17. 11. 52.
      40. 92. 10. 15. 38. 23. 40. 47. 55. 21. 55. 93. 107. 95. 120. 126.
      39. 116. 26. 13. 121. 13. 126. 148. 74. 19. 93. 14. 15. 16. 59.
      67. 36. 33. 119. 8. 25. 20. 14. 46. 63. 21. 80. 83. 111. 20. 9.
      114. 77. 21. 85. 126. 47. 12. 85. 16. 28. 34. 38. 17. 126. 17. 42.
      34. 48. 56. 92. 12. 37. 35. 47. 35. 65. 17. 78. 74. 73. 73. 110.
      111. 25. 14. 12. 110. 68. 13. 123. 100. 26. 19. 14. 90. 15. 39.
      74. 46. 61. 36. 107. 29. 15. 33. 40. 27. 26. 30. 73. 69. 70. 33.
      81. 39. 17. 14. 14. 120. 31. 14. 99. 16. 18. 12. 10. 9. 7. 62. 88.
      49. 37. 39. 91. 37. 26. 35. 32. 26. 26. 73. 37. 70. 61. 69. 91.
      89. 14. 17. 76. 97. 111. 72. 102. 15. 106. 14. 13. 113. 11. 76.
      80. 50. 38. 32. 91. 38. 13. 172. 32. 23. 20. 40. 56. 76. 68. 82.
      101. 105. 73. 8. 9. 66. 93. 29. 82. 68. 15. 15. 37. 22. 10. 45.
      99. 47. 29. 33. 105. 89. 98. 106. 103. 34. 16. 23. 80. 70. 62. 78.
      73. 91. 105. 42. 46. 70. 15. 80. 76. 98. 23. 17. 32. 14. 26. 37.
      46. 42. 33. 30. 69. 75. 77. 75. 75. 37. 31. 19. 44. 58. 66. 75.
      75. 87. 84. 78. 44. 55. 59. 76. 74. 79. 22. 60. 83. 22. 83. 39.</_>
    <_>
      28. 16. 180. 37. 79. 237. 251. 255. 255. 255. 245. 254. 254. 60.
      70. 188. 23. 69. 112. 145. 152. 179. 211. 234. 254. 255. 254. 172.
      143. 203. 30. 25. 143. 169. 178. 193. 198. 222. 222. 255. 183.
      254. 207. 254. 253. 214. 190. 187. 49. 120. 74. 71. 94. 184. 224.
      252. 255. 255. 254. 188. 136. 124. 52. 28. 22. 24. 31. 81. 47.
      217. 193. 243. 129. 177. 138. 252. 251. 235. 217. 179. 137. 89.
      70. 83. 153. 177. 221. 191. 253. 255. 199. 179. 88. 127. 23. 42.
      46. 32. 155. 19. 185. 70. 44. 210. 190. 250. 253. 73. 248. 229.
      209. 30. 177. 158. 57. 69. 80. 123. 212. 238. 72. 251. 70. 181.
      163. 133. 31. 42. 136. 156. 40. 158. 181. 188. 75. 211. 144. 144.
      235. 132. 54. 224. 25. 144. 103. 59. 148. 84. 159. 138. 108. 226.
      229. 101. 175. 18. 82. 157. 43. 49. 22. 23. 145. 166. 162. 185.
      75. 176. 190. 200. 205. 182. 207. 36. 27. 169. 172. 33. 58. 74.
      152. 169. 139. 202. 190. 200. 181. 173. 161. 147. 38. 47. 135. 54.
      58. 152. 39. 165. 26. 182. 186. 111. 34. 33. 72. 55. 159. 181. 15.
      82. 140. 150. 49. 159. 150. 170. 170. 58. 185. 176. 166. 150. 38.
      38. 123. 132. 29. 22. 18. 151. 73. 22. 91. 64. 37. 23. 14. 24. 29.
      93. 32. 163. 118. 62. 87. 21. 49. 24. 23. 21. 72. 94. 166. 138.
      39. 31. 19. 125. 22. 108. 55. 20. 142. 55. 151. 146. 22. 24. 17.
      19. 158. 13. 23. 124. 150. 142. 143. 156. 46. 49. 47. 150. 122.
      134. 150. 69. 33. 87. 9. 12. 17. 12. 14. 13. 108. 135. 99. 138.
      14. 14. 16. 166. 100. 114. 41. 155. 84. 133. 42. 156. 146. 21.
      144. 17. 160. 40. 178. 78. 38. 39. 27. 14. 13. 11. 15. 125. 103.
      13. 64. 124. 22. 20. 26. 141. 12. 145. 43. 33. 69. 70. 27. 133.
      140. 32. 54. 23. 156. 69. 166. 64. 27. 136. 9. 9. 88. 108. 11.
      102. 23. 113. 78. 101. 54. 15. 129. 16. 20. 124. 24. 138. 130. 93.
      140. 123. 110. 130. 139. 152. 148. 169. 176. 57. 34. 65. 12. 106.
      99. 8. 15. 97. 93. 74. 90. 102. 17. 90. 109. 16. 31. 125. 9. 12.
      123. 72. 113. 91. 103. 125. 136. 147. 129. 171. 168. 21. 40. 50.
      14. 10. 13. 98. 91. 23. 26. 11. 13. 76. 23. 81. 66. 115. 116. 115.
      105. 70. 123. 112. 97. 75. 95. 116. 121. 146. 158. 66. 162. 15.
      23. 38. 71. 80. 88. 88. 58. 83. 55. 13. 66. 62. 62. 78. 63. 78.
      104. 110. 117. 17. 111. 69. 84. 68. 97. 140. 87. 152. 152. 79.
      150. 26. 26. 27. 10. 11. 94. 68. 18. 39. 53. 76. 74. 58. 72. 86.
      96. 97. 55. 105. 113. 120. 99. 65. 82. 79. 112. 133. 130. 144. 79.
      57. 61. 14. 49. 31. 67. 64. 74. 76. 86. 25. 74. 62. 60. 68. 75.
      70. 28. 91. 40. 14. 98. 96. 79. 82. 84. 101. 102. 121. 140. 60.
      64. 53. 21. 35. 33. 21. 8. 54. 49. 58. 70. 74. 61. 34. 59. 64. 74.
      76. 60. 88. 49. 41. 91. 85. 89. 89. 98. 93. 99. 75. 35. 49. 21.
      175. 35. 35. 15. 23. 47. 45. 57. 45. 43. 14. 58. 55. 70. 66. 66.
      72. 46. 78. 8. 9. 81. 83. 24. 75. 96. 59. 20. 37. 56. 60. 42. 46.
      30. 16. 13. 18. 44. 63. 59. 57. 10. 46. 58. 56. 44. 17. 66. 53.
      66. 77. 12. 86. 87. 9. 101. 54. 36. 22. 31. 41. 72. 81. 38. 91.
      30. 17. 14. 11. 23. 49. 62. 33. 55. 34. 49. 50. 66. 56. 61. 47.
      62. 59. 15. 90. 44. 48. 38. 36. 31. 36. 45. 58. 46. 20. 46. 45.
      20. 16. 11. 14. 22. 48. 61. 46. 48. 35. 44. 46. 58. 59. 52. 41.
      56. 41. 40. 21. 36. 26. 25. 39. 34. 45. 44. 59. 66. 51. 90. 29.
      22. 7. 12. 9. 11. 17. 44. 33. 34. 56. 40. 56. 52. 50. 50. 40. 31.
      79. 26. 37. 15. 33. 33. 46. 20. 35. 38. 24. 25. 54. 61. 37. 17.
      12. 14. 30. 22. 9. 37. 23. 39. 35. 55. 44. 31. 20. 25. 51. 6. 9.
      77. 54. 20. 41. 46. 65. 46. 71. 45. 36. 63. 45. 42. 56. 55. 14. 9.
      20.</_>
    <_>
      15. 86. 79. 82. 69. 129. 141. 149. 38. 184. 200. 153. 237. 223.
      83. 236. 152. 254. 51. 224. 40. 102. 142. 115. 142. 174. 212. 253.
      254. 254. 231. 154. 60. 48. 20. 92. 113. 123. 95. 34. 51. 176.
      102. 59. 221. 225. 243. 250. 139. 86. 234. 225. 62. 47. 68. 151.
      122. 132. 221. 224. 251. 253. 215. 159. 18. 25. 65. 91. 60. 16.
      120. 25. 128. 175. 50. 187. 189. 84. 27. 31. 90. 27. 69. 195. 21.
      145. 51. 156. 144. 84. 209. 62. 59. 253. 75. 98. 73. 79. 93. 83.
      27. 19. 122. 126. 36. 161. 60. 182. 181. 191. 196. 205. 41. 202.
      182. 194. 177. 169. 56. 127. 34. 178. 51. 240. 154. 229. 111. 172.
      56. 71. 84. 92. 31. 14. 122. 107. 69. 17. 30. 59. 28. 166. 33. 34.
      190. 180. 15. 189. 174. 55. 156. 145. 157. 164. 203. 206. 203.
      193. 175. 165. 60. 61. 71. 17. 11. 13. 29. 125. 149. 150. 27. 157.
      25. 33. 169. 28. 17. 29. 30. 26. 181. 10. 148. 153. 14. 21. 20.
      146. 177. 20. 25. 161. 71. 14. 35. 66. 87. 15. 58. 14. 16. 16. 42.
      27. 25. 20. 137. 37. 27. 31. 175. 22. 25. 158. 19. 16. 160. 157.
      119. 143. 171. 31. 16. 172. 56. 12. 21. 24. 67. 13. 14. 108. 16.
      16. 74. 120. 120. 23. 137. 133. 134. 174. 25. 168. 149. 28. 126.
      126. 128. 11. 11. 146. 151. 55. 158. 72. 48. 7. 39. 11. 59. 11. 6.
      11. 13. 92. 131. 124. 120. 25. 91. 22. 131. 151. 147. 16. 53. 18.
      125. 151. 151. 11. 28. 120. 119. 164. 180. 160. 54. 22. 29. 40.
      82. 15. 13. 89. 14. 106. 99. 14. 81. 106. 94. 24. 26. 19. 18. 128.
      13. 61. 121. 121. 126. 124. 132. 115. 69. 166. 186. 107. 59. 57.
      59. 18. 71. 72. 41. 12. 90. 100. 88. 87. 105. 83. 31. 114. 103.
      135. 113. 22. 27. 126. 135. 83. 115. 116. 117. 146. 22. 160. 166.
      67. 55. 58. 45. 10. 5. 10. 70. 59. 84. 98. 24. 76. 16. 9. 76. 91.
      93. 12. 109. 14. 120. 120. 87. 32. 107. 95. 132. 141. 149. 156.
      174. 29. 47. 47. 63. 58. 34. 8. 20. 12. 78. 85. 76. 80. 11. 70.
      63. 25. 95. 17. 60. 109. 100. 127. 108. 89. 78. 9. 113. 127. 111.
      62. 171. 26. 58. 46. 57. 65. 62. 6. 27. 17. 72. 12. 7. 79. 68. 72.
      66. 80. 86. 86. 87. 94. 98. 16. 103. 95. 87. 90. 128. 82. 152.
      160. 166. 34. 51. 52. 63. 57. 8. 6. 12. 11. 67. 74. 125. 81. 75.
      69. 67. 68. 80. 81. 58. 108. 105. 98. 23. 88. 100. 99. 125. 122.
      123. 92. 70. 34. 53. 46. 57. 9. 59. 63. 11. 61. 58. 59. 69. 65.
      76. 60. 73. 82. 66. 87. 48. 50. 125. 90. 71. 93. 79. 87. 115. 138.
      35. 47. 96. 23. 46. 47. 53. 51. 51. 54. 50. 67. 48. 54. 61. 68.
      61. 65. 72. 72. 6. 80. 42. 10. 13. 95. 88. 93. 6. 108. 96. 51. 18.
      103. 119. 96. 50. 54. 49. 39. 23. 19. 56. 55. 43. 76. 37. 61. 55.
      65. 77. 69. 81. 71. 7. 98. 10. 10. 93. 81. 33. 27. 35. 122. 40.
      39. 37. 54. 51. 46. 51. 24. 19. 27. 55. 56. 40. 57. 44. 64. 57.
      67. 71. 74. 49. 82. 90. 104. 83. 67. 24. 68. 27. 37. 47. 56. 83.
      67. 104. 34. 47. 50. 53. 20. 46. 40. 26. 52. 47. 8. 47. 56. 53.
      57. 63. 49. 60. 52. 84. 105. 55. 45. 45. 55. 38. 23. 46. 82. 53.
      44. 96. 33. 37. 53. 51. 20. 44. 58. 24. 53. 31. 40. 56. 50. 56.
      61. 7. 8. 28. 32. 30. 43. 33. 40. 25. 30. 31. 28. 58. 59. 80. 28.
      59. 31. 41. 48. 43. 23. 46. 52. 20. 51. 32. 57. 12. 60. 55. 63.
      27. 35. 59. 40. 8. 121. 39. 101. 12. 50. 26. 36. 15. 64. 8. 104.
      62. 65. 36. 47. 41. 23. 47. 51. 10. 44. 38. 51. 44. 42. 67. 35. 5.
      13. 51. 7. 7. 7. 38. 19. 83. 38. 16. 59. 46. 41. 26. 56. 48. 54.
      40. 44. 41. 18. 44. 21. 44. 53. 22. 55. 20. 39. 17. 8. 6. 11. 26.
      53. 6. 7. 11. 32. 26. 30. 20. 52. 51. 38. 19. 58. 44. 43.</_>
    <_>
      52. 56. 59. 59. 177. 20. 40. 67. 87. 39. 6. 4. 8. 16. 11. 18. 16.
      15. 9. 4. 8. 7. 11. 8. 8. 7. 14. 30. 31. 31. 27. 27. 166. 71. 66.
      87. 46. 73. 68. 90. 99. 118. 12. 7. 10. 7. 37. 59. 13. 16. 56. 42.
      67. 52. 48. 64. 70. 65. 67. 51. 45. 44. 39. 34. 51. 167. 149. 153.
      107. 51. 55. 89. 100. 112. 87. 8. 11. 20. 69. 81. 46. 124. 152.
      160. 119. 113. 101. 109. 68. 79. 68. 52. 72. 71. 67. 49. 17. 25.
      37. 52. 42. 41. 65. 73. 103. 107. 115. 52. 10. 8. 64. 82. 62. 83.
      90. 102. 108. 132. 87. 22. 52. 33. 63. 47. 47. 13. 37. 12. 10. 10.
      37. 38. 38. 55. 78. 96. 105. 111. 122. 118. 38. 54. 69. 94. 37.
      47. 51. 41. 34. 31. 39. 41. 49. 50. 57. 64. 77. 91. 101. 112. 7.
      9. 57. 40. 51. 26. 16. 45. 53. 68. 90. 104. 30. 58. 70. 94. 86.
      66. 80. 55. 22. 30. 47. 105. 151. 149. 56. 69. 74. 78. 85. 67.
      127. 60. 91. 103. 120. 29. 23. 40. 36. 102. 97. 83. 116. 55. 101.
      93. 185. 64. 171. 233. 160. 138. 164. 128. 56. 102. 101. 142. 99.
      34. 18. 16. 18. 26. 26. 30. 18. 18. 8. 13. 65. 17. 78. 122. 91.
      23. 70. 92. 160. 106. 137. 214. 215. 202. 165. 83. 29. 25. 36.
      143. 112. 6. 7. 84. 20. 27. 10. 6. 12. 6. 6. 9. 19. 55. 100. 98.
      95. 79. 56. 92. 112. 123. 104. 133. 131. 160. 156. 84. 8. 6. 12.
      57. 243. 251. 97. 8. 114. 83. 84. 96. 95. 84. 73. 32. 43. 52. 53.
      82. 105. 133. 125. 115. 134. 163. 166. 156. 163. 160. 62. 78. 81.
      16. 20. 43. 53. 17. 13. 11. 85. 82. 72. 63. 48. 46. 77. 5. 11. 15.
      14. 29. 45. 61. 81. 73. 114. 129. 132. 134. 85. 45. 77. 77. 75.
      75. 75. 72. 46. 42. 19. 12. 31. 35. 14. 2. 8. 2. 3. 1. 3. 10. 12.
      18. 18. 17. 21. 29. 37. 40. 34. 33. 51. 51. 51. 50. 59. 67. 48. 5.
      5. 8. 8. 16. 2. 3. 3. 2. 3. 2. 2. 3. 3. 7. 16. 13. 14. 10. 17. 27.
      32. 31. 35. 36. 35. 43. 42. 37. 40. 41. 14. 3. 6. 5. 3. 2. 2. 2.
      2. 1. 1. 2. 3. 3. 2. 4. 3. 2. 6. 52. 13. 16. 20. 28. 31. 31. 39.
      33. 29. 28. 37. 36. 6. 3. 9. 2. 3. 4. 2. 1. 2. 3. 1. 2. 2. 1. 3.
      2. 1. 2. 2. 3. 3. 9. 16. 14. 16. 18. 16. 25. 21. 20. 28. 29. 21.
      5. 6. 4. 3. 5. 2. 1. 3. 1. 2. 2. 2. 1. 2. 2. 1. 1. 1. 2. 2. 4. 2.
      5. 5. 6. 10. 7. 5. 10. 14. 19. 20. 28. 8. 4. 6. 21. 2. 4. 2. 2. 2.
      2. 1. 2. 2. 2. 1. 2. 2. 2. 3. 6. 3. 3. 6. 6. 3. 2. 5. 7. 10. 8.
      15. 18. 21. 30. 12. 7. 1. 2. 2. 2. 2. 2. 2. 2. 2. 3. 1. 3. 2. 2.
      2. 3. 8. 2. 2. 2. 7. 4. 2. 3. 3. 5. 8. 13. 17. 18. 23. 25. 1. 3.
      2. 2. 3. 3. 2. 2. 1. 2. 3. 4. 2. 1. 2. 3. 1. 2. 3. 2. 3. 3. 4. 4.
      8. 4. 6. 5. 10. 11. 12. 21. 1. 2. 3. 2. 4. 2. 2. 3. 2. 2. 3. 2. 2.
      2. 2. 3. 2. 1. 3. 3. 5. 11. 3. 2. 2. 3. 4. 3. 4. 9. 9. 11. 2. 3.
      3. 2. 2. 3. 2. 2. 3. 2. 3. 2. 4. 4. 4. 2. 3. 7. 16. 12. 7. 4. 3.
      5. 6. 2. 2. 3. 6. 6. 7. 7. 2. 2. 2. 2. 3. 2. 2. 2. 2. 3. 3. 2. 3.
